digraph Tree {
node [shape=box, style="filled", color="black", fontname="helvetica"] ;
edge [fontname="helvetica"] ;
0 [label="UnemployedDaysOnly <= 1460.0\nentropy = 0.529\nsamples = 1161\nvalue = [1022, 139]", fillcolor="#e99254"] ;
1 [label="UnemployedDaysOnly <= 490.0\nentropy = 0.658\nsamples = 553\nvalue = [459, 94]", fillcolor="#ea9b62"] ;
0 -> 1 [labeldistance=2.5, labelangle=45, headlabel="True"] ;
2 [label="Type_Occupation <= 7.0\nentropy = 0.516\nsamples = 303\nvalue = [268, 35]", fillcolor="#e89153"] ;
1 -> 2 ;
3 [label="entropy = 0.0\nsamples = 29\nvalue = [29, 0]", fillcolor="#e58139"] ;
2 -> 3 ;
4 [label="UnemployedDaysOnly <= 384.5\nentropy = 0.551\nsamples = 274\nvalue = [239, 35]", fillcolor="#e99356"] ;
2 -> 4 ;
5 [label="Housing_type <= 1.5\nentropy = 0.576\nsamples = 256\nvalue = [221, 35]", fillcolor="#e99558"] ;
4 -> 5 ;
6 [label="UnemployedDaysOnly <= 380.5\nentropy = 0.53\nsamples = 233\nvalue = [205, 28]", fillcolor="#e99254"] ;
5 -> 6 ;
7 [label="Family_Members <= 2.5\nentropy = 0.519\nsamples = 232\nvalue = [205, 27]", fillcolor="#e89253"] ;
6 -> 7 ;
8 [label="CHILDREN <= 0.5\nentropy = 0.55\nsamples = 212\nvalue = [185, 27]", fillcolor="#e99356"] ;
7 -> 8 ;
9 [label="UnemployedDaysOnly <= 263.0\nentropy = 0.518\nsamples = 207\nvalue = [183, 24]", fillcolor="#e89253"] ;
8 -> 9 ;
10 [label="UnemployedDaysOnly <= 241.0\nentropy = 0.536\nsamples = 196\nvalue = [172, 24]", fillcolor="#e99355"] ;
9 -> 10 ;
11 [label="Age <= 58.5\nentropy = 0.523\nsamples = 195\nvalue = [172, 23]", fillcolor="#e89253"] ;
10 -> 11 ;
12 [label="Annual_income <= 495000.0\nentropy = 0.401\nsamples = 88\nvalue = [81, 7]", fillcolor="#e78c4a"] ;
11 -> 12 ;
13 [label="GENDER <= 0.5\nentropy = 0.362\nsamples = 87\nvalue = [81, 6]", fillcolor="#e78a48"] ;
12 -> 13 ;
14 [label="Annual_income <= 146250.0\nentropy = 0.191\nsamples = 68\nvalue = [66, 2]", fillcolor="#e6853f"] ;
13 -> 14 ;
15 [label="entropy = 0.0\nsamples = 42\nvalue = [42, 0]", fillcolor="#e58139"] ;
14 -> 15 ;
16 [label="Annual_income <= 163800.0\nentropy = 0.391\nsamples = 26\nvalue = [24, 2]", fillcolor="#e78c49"] ;
14 -> 16 ;
17 [label="Family_Members <= 1.5\nentropy = 0.863\nsamples = 7\nvalue = [5, 2]", fillcolor="#efb388"] ;
16 -> 17 ;
18 [label="entropy = 0.0\nsamples = 4\nvalue = [4, 0]", fillcolor="#e58139"] ;
17 -> 18 ;
19 [label="Propert_Owner <= 0.5\nentropy = 0.918\nsamples = 3\nvalue = [1, 2]", fillcolor="#9ccef2"] ;
17 -> 19 ;
20 [label="entropy = 0.0\nsamples = 1\nvalue = [0, 1]", fillcolor="#399de5"] ;
19 -> 20 ;
21 [label="Age <= 57.5\nentropy = 1.0\nsamples = 2\nvalue = [1, 1]", fillcolor="#ffffff"] ;
19 -> 21 ;
22 [label="entropy = 0.0\nsamples = 1\nvalue = [0, 1]", fillcolor="#399de5"] ;
21 -> 22 ;
23 [label="entropy = 0.0\nsamples = 1\nvalue = [1, 0]", fillcolor="#e58139"] ;
21 -> 23 ;
24 [label="entropy = 0.0\nsamples = 19\nvalue = [19, 0]", fillcolor="#e58139"] ;
16 -> 24 ;
25 [label="Annual_income <= 184500.0\nentropy = 0.742\nsamples = 19\nvalue = [15, 4]", fillcolor="#eca36e"] ;
13 -> 25 ;
26 [label="EDUCATION <= 2.5\nentropy = 0.971\nsamples = 10\nvalue = [6, 4]", fillcolor="#f6d5bd"] ;
25 -> 26 ;
27 [label="entropy = 0.0\nsamples = 2\nvalue = [0, 2]", fillcolor="#399de5"] ;
26 -> 27 ;
28 [label="UnemployedDaysOnly <= 206.0\nentropy = 0.811\nsamples = 8\nvalue = [6, 2]", fillcolor="#eeab7b"] ;
26 -> 28 ;
29 [label="entropy = 0.0\nsamples = 6\nvalue = [6, 0]", fillcolor="#e58139"] ;
28 -> 29 ;
30 [label="entropy = 0.0\nsamples = 2\nvalue = [0, 2]", fillcolor="#399de5"] ;
28 -> 30 ;
31 [label="entropy = 0.0\nsamples = 9\nvalue = [9, 0]", fillcolor="#e58139"] ;
25 -> 31 ;
32 [label="entropy = 0.0\nsamples = 1\nvalue = [0, 1]", fillcolor="#399de5"] ;
12 -> 32 ;
33 [label="EMAIL_ID <= 0.5\nentropy = 0.609\nsamples = 107\nvalue = [91, 16]", fillcolor="#ea975c"] ;
11 -> 33 ;
34 [label="Annual_income <= 101250.0\nentropy = 0.588\nsamples = 106\nvalue = [91, 15]", fillcolor="#e9965a"] ;
33 -> 34 ;
35 [label="Age <= 62.5\nentropy = 0.845\nsamples = 22\nvalue = [16, 6]", fillcolor="#efb083"] ;
34 -> 35 ;
36 [label="entropy = 0.0\nsamples = 6\nvalue = [6, 0]", fillcolor="#e58139"] ;
35 -> 36 ;
37 [label="Annual_income <= 67275.0\nentropy = 0.954\nsamples = 16\nvalue = [10, 6]", fillcolor="#f5cdb0"] ;
35 -> 37 ;
38 [label="entropy = 0.0\nsamples = 3\nvalue = [3, 0]", fillcolor="#e58139"] ;
37 -> 38 ;
39 [label="EDUCATION <= 3.5\nentropy = 0.996\nsamples = 13\nvalue = [7, 6]", fillcolor="#fbede3"] ;
37 -> 39 ;
40 [label="entropy = 0.0\nsamples = 3\nvalue = [0, 3]", fillcolor="#399de5"] ;
39 -> 40 ;
41 [label="Annual_income <= 85500.0\nentropy = 0.881\nsamples = 10\nvalue = [7, 3]", fillcolor="#f0b78e"] ;
39 -> 41 ;
42 [label="Age <= 64.5\nentropy = 0.971\nsamples = 5\nvalue = [2, 3]", fillcolor="#bddef6"] ;
41 -> 42 ;
43 [label="Age <= 63.5\nentropy = 0.918\nsamples = 3\nvalue = [2, 1]", fillcolor="#f2c09c"] ;
42 -> 43 ;
44 [label="Annual_income <= 72000.0\nentropy = 1.0\nsamples = 2\nvalue = [1, 1]", fillcolor="#ffffff"] ;
43 -> 44 ;
45 [label="entropy = 0.0\nsamples = 1\nvalue = [0, 1]", fillcolor="#399de5"] ;
44 -> 45 ;
46 [label="entropy = 0.0\nsamples = 1\nvalue = [1, 0]", fillcolor="#e58139"] ;
44 -> 46 ;
47 [label="entropy = 0.0\nsamples = 1\nvalue = [1, 0]", fillcolor="#e58139"] ;
43 -> 47 ;
48 [label="entropy = 0.0\nsamples = 2\nvalue = [0, 2]", fillcolor="#399de5"] ;
42 -> 48 ;
49 [label="entropy = 0.0\nsamples = 5\nvalue = [5, 0]", fillcolor="#e58139"] ;
41 -> 49 ;
50 [label="Age <= 63.5\nentropy = 0.491\nsamples = 84\nvalue = [75, 9]", fillcolor="#e89051"] ;
34 -> 50 ;
51 [label="Car_Owner <= 0.5\nentropy = 0.616\nsamples = 59\nvalue = [50, 9]", fillcolor="#ea985d"] ;
50 -> 51 ;
52 [label="Annual_income <= 220500.0\nentropy = 0.665\nsamples = 52\nvalue = [43, 9]", fillcolor="#ea9b62"] ;
51 -> 52 ;
53 [label="Marital_status <= 1.5\nentropy = 0.552\nsamples = 39\nvalue = [34, 5]", fillcolor="#e99456"] ;
52 -> 53 ;
54 [label="Age <= 62.5\nentropy = 0.677\nsamples = 28\nvalue = [23, 5]", fillcolor="#eb9c64"] ;
53 -> 54 ;
55 [label="EDUCATION <= 3.5\nentropy = 0.773\nsamples = 22\nvalue = [17, 5]", fillcolor="#eda673"] ;
54 -> 55 ;
56 [label="entropy = 0.0\nsamples = 2\nvalue = [2, 0]", fillcolor="#e58139"] ;
55 -> 56 ;
57 [label="Annual_income <= 191250.0\nentropy = 0.811\nsamples = 20\nvalue = [15, 5]", fillcolor="#eeab7b"] ;
55 -> 57 ;
58 [label="Annual_income <= 171000.0\nentropy = 0.852\nsamples = 18\nvalue = [13, 5]", fillcolor="#efb185"] ;
57 -> 58 ;
59 [label="Age <= 60.0\nentropy = 0.722\nsamples = 15\nvalue = [12, 3]", fillcolor="#eca06a"] ;
58 -> 59 ;
60 [label="Phone <= 0.5\nentropy = 0.971\nsamples = 5\nvalue = [3, 2]", fillcolor="#f6d5bd"] ;
59 -> 60 ;
61 [label="entropy = 0.0\nsamples = 3\nvalue = [3, 0]", fillcolor="#e58139"] ;
60 -> 61 ;
62 [label="entropy = 0.0\nsamples = 2\nvalue = [0, 2]", fillcolor="#399de5"] ;
60 -> 62 ;
63 [label="Phone <= 0.5\nentropy = 0.469\nsamples = 10\nvalue = [9, 1]", fillcolor="#e88f4f"] ;
59 -> 63 ;
64 [label="Annual_income <= 123750.0\nentropy = 0.65\nsamples = 6\nvalue = [5, 1]", fillcolor="#ea9a61"] ;
63 -> 64 ;
65 [label="entropy = 0.0\nsamples = 2\nvalue = [2, 0]", fillcolor="#e58139"] ;
64 -> 65 ;
66 [label="Annual_income <= 141750.0\nentropy = 0.811\nsamples = 4\nvalue = [3, 1]", fillcolor="#eeab7b"] ;
64 -> 66 ;
67 [label="Propert_Owner <= 0.5\nentropy = 1.0\nsamples = 2\nvalue = [1, 1]", fillcolor="#ffffff"] ;
66 -> 67 ;
68 [label="entropy = 0.0\nsamples = 1\nvalue = [1, 0]", fillcolor="#e58139"] ;
67 -> 68 ;
69 [label="entropy = 0.0\nsamples = 1\nvalue = [0, 1]", fillcolor="#399de5"] ;
67 -> 69 ;
70 [label="entropy = 0.0\nsamples = 2\nvalue = [2, 0]", fillcolor="#e58139"] ;
66 -> 70 ;
71 [label="entropy = 0.0\nsamples = 4\nvalue = [4, 0]", fillcolor="#e58139"] ;
63 -> 71 ;
72 [label="Age <= 59.5\nentropy = 0.918\nsamples = 3\nvalue = [1, 2]", fillcolor="#9ccef2"] ;
58 -> 72 ;
73 [label="entropy = 0.0\nsamples = 1\nvalue = [1, 0]", fillcolor="#e58139"] ;
72 -> 73 ;
74 [label="entropy = 0.0\nsamples = 2\nvalue = [0, 2]", fillcolor="#399de5"] ;
72 -> 74 ;
75 [label="entropy = 0.0\nsamples = 2\nvalue = [2, 0]", fillcolor="#e58139"] ;
57 -> 75 ;
76 [label="entropy = 0.0\nsamples = 6\nvalue = [6, 0]", fillcolor="#e58139"] ;
54 -> 76 ;
77 [label="entropy = 0.0\nsamples = 11\nvalue = [11, 0]", fillcolor="#e58139"] ;
53 -> 77 ;
78 [label="Annual_income <= 236250.0\nentropy = 0.89\nsamples = 13\nvalue = [9, 4]", fillcolor="#f1b991"] ;
52 -> 78 ;
79 [label="Marital_status <= 2.5\nentropy = 0.811\nsamples = 4\nvalue = [1, 3]", fillcolor="#7bbeee"] ;
78 -> 79 ;
80 [label="entropy = 0.0\nsamples = 1\nvalue = [1, 0]", fillcolor="#e58139"] ;
79 -> 80 ;
81 [label="entropy = 0.0\nsamples = 3\nvalue = [0, 3]", fillcolor="#399de5"] ;
79 -> 81 ;
82 [label="Age <= 59.5\nentropy = 0.503\nsamples = 9\nvalue = [8, 1]", fillcolor="#e89152"] ;
78 -> 82 ;
83 [label="entropy = 0.0\nsamples = 1\nvalue = [0, 1]", fillcolor="#399de5"] ;
82 -> 83 ;
84 [label="entropy = 0.0\nsamples = 8\nvalue = [8, 0]", fillcolor="#e58139"] ;
82 -> 84 ;
85 [label="entropy = 0.0\nsamples = 7\nvalue = [7, 0]", fillcolor="#e58139"] ;
51 -> 85 ;
86 [label="entropy = 0.0\nsamples = 25\nvalue = [25, 0]", fillcolor="#e58139"] ;
50 -> 86 ;
87 [label="entropy = 0.0\nsamples = 1\nvalue = [0, 1]", fillcolor="#399de5"] ;
33 -> 87 ;
88 [label="entropy = 0.0\nsamples = 1\nvalue = [0, 1]", fillcolor="#399de5"] ;
10 -> 88 ;
89 [label="entropy = 0.0\nsamples = 11\nvalue = [11, 0]", fillcolor="#e58139"] ;
9 -> 89 ;
90 [label="EDUCATION <= 3.0\nentropy = 0.971\nsamples = 5\nvalue = [2, 3]", fillcolor="#bddef6"] ;
8 -> 90 ;
91 [label="EMAIL_ID <= 0.5\nentropy = 0.918\nsamples = 3\nvalue = [2, 1]", fillcolor="#f2c09c"] ;
90 -> 91 ;
92 [label="Car_Owner <= 0.5\nentropy = 1.0\nsamples = 2\nvalue = [1, 1]", fillcolor="#ffffff"] ;
91 -> 92 ;
93 [label="entropy = 0.0\nsamples = 1\nvalue = [1, 0]", fillcolor="#e58139"] ;
92 -> 93 ;
94 [label="entropy = 0.0\nsamples = 1\nvalue = [0, 1]", fillcolor="#399de5"] ;
92 -> 94 ;
95 [label="entropy = 0.0\nsamples = 1\nvalue = [1, 0]", fillcolor="#e58139"] ;
91 -> 95 ;
96 [label="entropy = 0.0\nsamples = 2\nvalue = [0, 2]", fillcolor="#399de5"] ;
90 -> 96 ;
97 [label="entropy = 0.0\nsamples = 20\nvalue = [20, 0]", fillcolor="#e58139"] ;
7 -> 97 ;
98 [label="entropy = 0.0\nsamples = 1\nvalue = [0, 1]", fillcolor="#399de5"] ;
6 -> 98 ;
99 [label="Age <= 50.0\nentropy = 0.887\nsamples = 23\nvalue = [16, 7]", fillcolor="#f0b890"] ;
5 -> 99 ;
100 [label="entropy = 0.0\nsamples = 9\nvalue = [9, 0]", fillcolor="#e58139"] ;
99 -> 100 ;
101 [label="Annual_income <= 101250.0\nentropy = 1.0\nsamples = 14\nvalue = [7, 7]", fillcolor="#ffffff"] ;
99 -> 101 ;
102 [label="entropy = 0.0\nsamples = 4\nvalue = [4, 0]", fillcolor="#e58139"] ;
101 -> 102 ;
103 [label="EDUCATION <= 2.5\nentropy = 0.881\nsamples = 10\nvalue = [3, 7]", fillcolor="#8ec7f0"] ;
101 -> 103 ;
104 [label="entropy = 0.0\nsamples = 1\nvalue = [1, 0]", fillcolor="#e58139"] ;
103 -> 104 ;
105 [label="Age <= 58.5\nentropy = 0.764\nsamples = 9\nvalue = [2, 7]", fillcolor="#72b9ec"] ;
103 -> 105 ;
106 [label="entropy = 0.0\nsamples = 6\nvalue = [0, 6]", fillcolor="#399de5"] ;
105 -> 106 ;
107 [label="Annual_income <= 180000.0\nentropy = 0.918\nsamples = 3\nvalue = [2, 1]", fillcolor="#f2c09c"] ;
105 -> 107 ;
108 [label="entropy = 0.0\nsamples = 2\nvalue = [2, 0]", fillcolor="#e58139"] ;
107 -> 108 ;
109 [label="entropy = 0.0\nsamples = 1\nvalue = [0, 1]", fillcolor="#399de5"] ;
107 -> 109 ;
110 [label="entropy = 0.0\nsamples = 18\nvalue = [18, 0]", fillcolor="#e58139"] ;
4 -> 110 ;
111 [label="UnemployedDaysOnly <= 587.0\nentropy = 0.788\nsamples = 250\nvalue = [191, 59]", fillcolor="#eda876"] ;
1 -> 111 ;
112 [label="UnemployedDaysOnly <= 583.5\nentropy = 1.0\nsamples = 43\nvalue = [22, 21]", fillcolor="#fef9f6"] ;
111 -> 112 ;
113 [label="Annual_income <= 387000.0\nentropy = 0.964\nsamples = 36\nvalue = [22, 14]", fillcolor="#f6d1b7"] ;
112 -> 113 ;
114 [label="Annual_income <= 108000.0\nentropy = 0.869\nsamples = 31\nvalue = [22, 9]", fillcolor="#f0b58a"] ;
113 -> 114 ;
115 [label="Type_Occupation <= 7.5\nentropy = 0.65\nsamples = 6\nvalue = [1, 5]", fillcolor="#61b1ea"] ;
114 -> 115 ;
116 [label="entropy = 0.0\nsamples = 5\nvalue = [0, 5]", fillcolor="#399de5"] ;
115 -> 116 ;
117 [label="entropy = 0.0\nsamples = 1\nvalue = [1, 0]", fillcolor="#e58139"] ;
115 -> 117 ;
118 [label="Age <= 46.0\nentropy = 0.634\nsamples = 25\nvalue = [21, 4]", fillcolor="#ea995f"] ;
114 -> 118 ;
119 [label="entropy = 0.0\nsamples = 15\nvalue = [15, 0]", fillcolor="#e58139"] ;
118 -> 119 ;
120 [label="GENDER <= 0.5\nentropy = 0.971\nsamples = 10\nvalue = [6, 4]", fillcolor="#f6d5bd"] ;
118 -> 120 ;
121 [label="entropy = 0.0\nsamples = 5\nvalue = [5, 0]", fillcolor="#e58139"] ;
120 -> 121 ;
122 [label="UnemployedDaysOnly <= 528.0\nentropy = 0.722\nsamples = 5\nvalue = [1, 4]", fillcolor="#6ab6ec"] ;
120 -> 122 ;
123 [label="entropy = 0.0\nsamples = 1\nvalue = [1, 0]", fillcolor="#e58139"] ;
122 -> 123 ;
124 [label="entropy = 0.0\nsamples = 4\nvalue = [0, 4]", fillcolor="#399de5"] ;
122 -> 124 ;
125 [label="entropy = 0.0\nsamples = 5\nvalue = [0, 5]", fillcolor="#399de5"] ;
113 -> 125 ;
126 [label="entropy = 0.0\nsamples = 7\nvalue = [0, 7]", fillcolor="#399de5"] ;
112 -> 126 ;
127 [label="Age <= 36.5\nentropy = 0.688\nsamples = 207\nvalue = [169, 38]", fillcolor="#eb9d66"] ;
111 -> 127 ;
128 [label="Annual_income <= 461250.0\nentropy = 0.446\nsamples = 97\nvalue = [88, 9]", fillcolor="#e88e4d"] ;
127 -> 128 ;
129 [label="Type_Occupation <= 7.0\nentropy = 0.348\nsamples = 92\nvalue = [86, 6]", fillcolor="#e78a47"] ;
128 -> 129 ;
130 [label="entropy = 0.0\nsamples = 31\nvalue = [31, 0]", fillcolor="#e58139"] ;
129 -> 130 ;
131 [label="Annual_income <= 191250.0\nentropy = 0.464\nsamples = 61\nvalue = [55, 6]", fillcolor="#e88f4f"] ;
129 -> 131 ;
132 [label="Type_Income <= 1.0\nentropy = 0.601\nsamples = 41\nvalue = [35, 6]", fillcolor="#e9975b"] ;
131 -> 132 ;
133 [label="Annual_income <= 146250.0\nentropy = 0.985\nsamples = 7\nvalue = [4, 3]", fillcolor="#f8e0ce"] ;
132 -> 133 ;
134 [label="entropy = 0.0\nsamples = 3\nvalue = [3, 0]", fillcolor="#e58139"] ;
133 -> 134 ;
135 [label="Marital_status <= 2.0\nentropy = 0.811\nsamples = 4\nvalue = [1, 3]", fillcolor="#7bbeee"] ;
133 -> 135 ;
136 [label="entropy = 0.0\nsamples = 3\nvalue = [0, 3]", fillcolor="#399de5"] ;
135 -> 136 ;
137 [label="entropy = 0.0\nsamples = 1\nvalue = [1, 0]", fillcolor="#e58139"] ;
135 -> 137 ;
138 [label="Family_Members <= 2.5\nentropy = 0.431\nsamples = 34\nvalue = [31, 3]", fillcolor="#e88d4c"] ;
132 -> 138 ;
139 [label="entropy = 0.0\nsamples = 18\nvalue = [18, 0]", fillcolor="#e58139"] ;
138 -> 139 ;
140 [label="Age <= 26.5\nentropy = 0.696\nsamples = 16\nvalue = [13, 3]", fillcolor="#eb9e67"] ;
138 -> 140 ;
141 [label="entropy = 0.0\nsamples = 2\nvalue = [0, 2]", fillcolor="#399de5"] ;
140 -> 141 ;
142 [label="Age <= 33.5\nentropy = 0.371\nsamples = 14\nvalue = [13, 1]", fillcolor="#e78b48"] ;
140 -> 142 ;
143 [label="entropy = 0.0\nsamples = 10\nvalue = [10, 0]", fillcolor="#e58139"] ;
142 -> 143 ;
144 [label="EMAIL_ID <= 0.5\nentropy = 0.811\nsamples = 4\nvalue = [3, 1]", fillcolor="#eeab7b"] ;
142 -> 144 ;
145 [label="entropy = 0.0\nsamples = 1\nvalue = [0, 1]", fillcolor="#399de5"] ;
144 -> 145 ;
146 [label="entropy = 0.0\nsamples = 3\nvalue = [3, 0]", fillcolor="#e58139"] ;
144 -> 146 ;
147 [label="entropy = 0.0\nsamples = 20\nvalue = [20, 0]", fillcolor="#e58139"] ;
131 -> 147 ;
148 [label="UnemployedDaysOnly <= 956.5\nentropy = 0.971\nsamples = 5\nvalue = [2, 3]", fillcolor="#bddef6"] ;
128 -> 148 ;
149 [label="entropy = 0.0\nsamples = 3\nvalue = [0, 3]", fillcolor="#399de5"] ;
148 -> 149 ;
150 [label="entropy = 0.0\nsamples = 2\nvalue = [2, 0]", fillcolor="#e58139"] ;
148 -> 150 ;
151 [label="GENDER <= 0.5\nentropy = 0.832\nsamples = 110\nvalue = [81, 29]", fillcolor="#eeae80"] ;
127 -> 151 ;
152 [label="UnemployedDaysOnly <= 1025.0\nentropy = 0.579\nsamples = 58\nvalue = [50, 8]", fillcolor="#e99559"] ;
151 -> 152 ;
153 [label="UnemployedDaysOnly <= 991.0\nentropy = 0.824\nsamples = 31\nvalue = [23, 8]", fillcolor="#eead7e"] ;
152 -> 153 ;
154 [label="Propert_Owner <= 0.5\nentropy = 0.677\nsamples = 28\nvalue = [23, 5]", fillcolor="#eb9c64"] ;
153 -> 154 ;
155 [label="entropy = 0.0\nsamples = 10\nvalue = [10, 0]", fillcolor="#e58139"] ;
154 -> 155 ;
156 [label="Annual_income <= 125100.0\nentropy = 0.852\nsamples = 18\nvalue = [13, 5]", fillcolor="#efb185"] ;
154 -> 156 ;
157 [label="entropy = 0.0\nsamples = 6\nvalue = [6, 0]", fillcolor="#e58139"] ;
156 -> 157 ;
158 [label="Family_Members <= 2.5\nentropy = 0.98\nsamples = 12\nvalue = [7, 5]", fillcolor="#f8dbc6"] ;
156 -> 158 ;
159 [label="Age <= 46.5\nentropy = 0.991\nsamples = 9\nvalue = [4, 5]", fillcolor="#d7ebfa"] ;
158 -> 159 ;
160 [label="Annual_income <= 157500.0\nentropy = 0.863\nsamples = 7\nvalue = [2, 5]", fillcolor="#88c4ef"] ;
159 -> 160 ;
161 [label="Type_Occupation <= 8.0\nentropy = 0.971\nsamples = 5\nvalue = [2, 3]", fillcolor="#bddef6"] ;
160 -> 161 ;
162 [label="entropy = 0.918\nsamples = 3\nvalue = [1, 2]", fillcolor="#9ccef2"] ;
161 -> 162 ;
163 [label="entropy = 1.0\nsamples = 2\nvalue = [1, 1]", fillcolor="#ffffff"] ;
161 -> 163 ;
164 [label="entropy = 0.0\nsamples = 2\nvalue = [0, 2]", fillcolor="#399de5"] ;
160 -> 164 ;
165 [label="entropy = 0.0\nsamples = 2\nvalue = [2, 0]", fillcolor="#e58139"] ;
159 -> 165 ;
166 [label="entropy = 0.0\nsamples = 3\nvalue = [3, 0]", fillcolor="#e58139"] ;
158 -> 166 ;
167 [label="entropy = 0.0\nsamples = 3\nvalue = [0, 3]", fillcolor="#399de5"] ;
153 -> 167 ;
168 [label="entropy = 0.0\nsamples = 27\nvalue = [27, 0]", fillcolor="#e58139"] ;
152 -> 168 ;
169 [label="Annual_income <= 220050.0\nentropy = 0.973\nsamples = 52\nvalue = [31, 21]", fillcolor="#f7d6bf"] ;
151 -> 169 ;
170 [label="UnemployedDaysOnly <= 855.5\nentropy = 0.991\nsamples = 27\nvalue = [12, 15]", fillcolor="#d7ebfa"] ;
169 -> 170 ;
171 [label="Family_Members <= 1.5\nentropy = 0.592\nsamples = 7\nvalue = [6, 1]", fillcolor="#e9965a"] ;
170 -> 171 ;
172 [label="entropy = 0.0\nsamples = 1\nvalue = [0, 1]", fillcolor="#399de5"] ;
171 -> 172 ;
173 [label="entropy = 0.0\nsamples = 6\nvalue = [6, 0]", fillcolor="#e58139"] ;
171 -> 173 ;
174 [label="Age <= 53.0\nentropy = 0.881\nsamples = 20\nvalue = [6, 14]", fillcolor="#8ec7f0"] ;
170 -> 174 ;
175 [label="UnemployedDaysOnly <= 1001.5\nentropy = 0.764\nsamples = 18\nvalue = [4, 14]", fillcolor="#72b9ec"] ;
174 -> 175 ;
176 [label="entropy = 0.0\nsamples = 5\nvalue = [0, 5]", fillcolor="#399de5"] ;
175 -> 176 ;
177 [label="Work_Phone <= 0.5\nentropy = 0.89\nsamples = 13\nvalue = [4, 9]", fillcolor="#91c9f1"] ;
175 -> 177 ;
178 [label="Marital_status <= 2.0\nentropy = 0.684\nsamples = 11\nvalue = [2, 9]", fillcolor="#65b3eb"] ;
177 -> 178 ;
179 [label="Family_Members <= 2.5\nentropy = 0.469\nsamples = 10\nvalue = [1, 9]", fillcolor="#4fa8e8"] ;
178 -> 179 ;
180 [label="entropy = 0.0\nsamples = 8\nvalue = [0, 8]", fillcolor="#399de5"] ;
179 -> 180 ;
181 [label="entropy = 1.0\nsamples = 2\nvalue = [1, 1]", fillcolor="#ffffff"] ;
179 -> 181 ;
182 [label="entropy = 0.0\nsamples = 1\nvalue = [1, 0]", fillcolor="#e58139"] ;
178 -> 182 ;
183 [label="entropy = 0.0\nsamples = 2\nvalue = [2, 0]", fillcolor="#e58139"] ;
177 -> 183 ;
184 [label="entropy = 0.0\nsamples = 2\nvalue = [2, 0]", fillcolor="#e58139"] ;
174 -> 184 ;
185 [label="UnemployedDaysOnly <= 865.0\nentropy = 0.795\nsamples = 25\nvalue = [19, 6]", fillcolor="#eda978"] ;
169 -> 185 ;
186 [label="Marital_status <= 0.5\nentropy = 0.954\nsamples = 8\nvalue = [3, 5]", fillcolor="#b0d8f5"] ;
185 -> 186 ;
187 [label="entropy = 0.0\nsamples = 1\nvalue = [1, 0]", fillcolor="#e58139"] ;
186 -> 187 ;
188 [label="Type_Income <= 0.5\nentropy = 0.863\nsamples = 7\nvalue = [2, 5]", fillcolor="#88c4ef"] ;
186 -> 188 ;
189 [label="Marital_status <= 2.5\nentropy = 0.971\nsamples = 5\nvalue = [2, 3]", fillcolor="#bddef6"] ;
188 -> 189 ;
190 [label="EMAIL_ID <= 0.5\nentropy = 1.0\nsamples = 4\nvalue = [2, 2]", fillcolor="#ffffff"] ;
189 -> 190 ;
191 [label="entropy = 1.0\nsamples = 2\nvalue = [1, 1]", fillcolor="#ffffff"] ;
190 -> 191 ;
192 [label="entropy = 1.0\nsamples = 2\nvalue = [1, 1]", fillcolor="#ffffff"] ;
190 -> 192 ;
193 [label="entropy = 0.0\nsamples = 1\nvalue = [0, 1]", fillcolor="#399de5"] ;
189 -> 193 ;
194 [label="entropy = 0.0\nsamples = 2\nvalue = [0, 2]", fillcolor="#399de5"] ;
188 -> 194 ;
195 [label="Age <= 50.5\nentropy = 0.323\nsamples = 17\nvalue = [16, 1]", fillcolor="#e78945"] ;
185 -> 195 ;
196 [label="entropy = 0.0\nsamples = 14\nvalue = [14, 0]", fillcolor="#e58139"] ;
195 -> 196 ;
197 [label="EDUCATION <= 2.5\nentropy = 0.918\nsamples = 3\nvalue = [2, 1]", fillcolor="#f2c09c"] ;
195 -> 197 ;
198 [label="entropy = 0.0\nsamples = 1\nvalue = [0, 1]", fillcolor="#399de5"] ;
197 -> 198 ;
199 [label="entropy = 0.0\nsamples = 2\nvalue = [2, 0]", fillcolor="#e58139"] ;
197 -> 199 ;
200 [label="Age <= 55.5\nentropy = 0.381\nsamples = 608\nvalue = [563, 45]", fillcolor="#e78b49"] ;
0 -> 200 [labeldistance=2.5, labelangle=-45, headlabel="False"] ;
201 [label="Propert_Owner <= 0.5\nentropy = 0.404\nsamples = 558\nvalue = [513, 45]", fillcolor="#e78c4a"] ;
200 -> 201 ;
202 [label="Type_Occupation <= 9.0\nentropy = 0.275\nsamples = 211\nvalue = [201, 10]", fillcolor="#e68743"] ;
201 -> 202 ;
203 [label="Age <= 54.5\nentropy = 0.348\nsamples = 153\nvalue = [143, 10]", fillcolor="#e78a47"] ;
202 -> 203 ;
204 [label="Family_Members <= 2.5\nentropy = 0.3\nsamples = 150\nvalue = [142, 8]", fillcolor="#e68844"] ;
203 -> 204 ;
205 [label="UnemployedDaysOnly <= 4301.0\nentropy = 0.135\nsamples = 106\nvalue = [104, 2]", fillcolor="#e6833d"] ;
204 -> 205 ;
206 [label="entropy = 0.0\nsamples = 65\nvalue = [65, 0]", fillcolor="#e58139"] ;
205 -> 206 ;
207 [label="UnemployedDaysOnly <= 4359.5\nentropy = 0.281\nsamples = 41\nvalue = [39, 2]", fillcolor="#e68743"] ;
205 -> 207 ;
208 [label="entropy = 0.0\nsamples = 1\nvalue = [0, 1]", fillcolor="#399de5"] ;
207 -> 208 ;
209 [label="GENDER <= 0.5\nentropy = 0.169\nsamples = 40\nvalue = [39, 1]", fillcolor="#e6843e"] ;
207 -> 209 ;
210 [label="entropy = 0.0\nsamples = 30\nvalue = [30, 0]", fillcolor="#e58139"] ;
209 -> 210 ;
211 [label="UnemployedDaysOnly <= 6935.5\nentropy = 0.469\nsamples = 10\nvalue = [9, 1]", fillcolor="#e88f4f"] ;
209 -> 211 ;
212 [label="entropy = 0.0\nsamples = 8\nvalue = [8, 0]", fillcolor="#e58139"] ;
211 -> 212 ;
213 [label="Marital_status <= 2.0\nentropy = 1.0\nsamples = 2\nvalue = [1, 1]", fillcolor="#ffffff"] ;
211 -> 213 ;
214 [label="entropy = 0.0\nsamples = 1\nvalue = [0, 1]", fillcolor="#399de5"] ;
213 -> 214 ;
215 [label="entropy = 0.0\nsamples = 1\nvalue = [1, 0]", fillcolor="#e58139"] ;
213 -> 215 ;
216 [label="UnemployedDaysOnly <= 6779.5\nentropy = 0.575\nsamples = 44\nvalue = [38, 6]", fillcolor="#e99558"] ;
204 -> 216 ;
217 [label="Housing_type <= 1.5\nentropy = 0.398\nsamples = 38\nvalue = [35, 3]", fillcolor="#e78c4a"] ;
216 -> 217 ;
218 [label="entropy = 0.0\nsamples = 29\nvalue = [29, 0]", fillcolor="#e58139"] ;
217 -> 218 ;
219 [label="Housing_type <= 4.5\nentropy = 0.918\nsamples = 9\nvalue = [6, 3]", fillcolor="#f2c09c"] ;
217 -> 219 ;
220 [label="Age <= 36.0\nentropy = 0.971\nsamples = 5\nvalue = [2, 3]", fillcolor="#bddef6"] ;
219 -> 220 ;
221 [label="entropy = 0.0\nsamples = 3\nvalue = [0, 3]", fillcolor="#399de5"] ;
220 -> 221 ;
222 [label="entropy = 0.0\nsamples = 2\nvalue = [2, 0]", fillcolor="#e58139"] ;
220 -> 222 ;
223 [label="entropy = 0.0\nsamples = 4\nvalue = [4, 0]", fillcolor="#e58139"] ;
219 -> 223 ;
224 [label="Age <= 42.0\nentropy = 1.0\nsamples = 6\nvalue = [3, 3]", fillcolor="#ffffff"] ;
216 -> 224 ;
225 [label="UnemployedDaysOnly <= 6942.0\nentropy = 0.811\nsamples = 4\nvalue = [3, 1]", fillcolor="#eeab7b"] ;
224 -> 225 ;
226 [label="entropy = 0.0\nsamples = 1\nvalue = [0, 1]", fillcolor="#399de5"] ;
225 -> 226 ;
227 [label="entropy = 0.0\nsamples = 3\nvalue = [3, 0]", fillcolor="#e58139"] ;
225 -> 227 ;
228 [label="entropy = 0.0\nsamples = 2\nvalue = [0, 2]", fillcolor="#399de5"] ;
224 -> 228 ;
229 [label="UnemployedDaysOnly <= 3246.0\nentropy = 0.918\nsamples = 3\nvalue = [1, 2]", fillcolor="#9ccef2"] ;
203 -> 229 ;
230 [label="entropy = 0.0\nsamples = 2\nvalue = [0, 2]", fillcolor="#399de5"] ;
229 -> 230 ;
231 [label="entropy = 0.0\nsamples = 1\nvalue = [1, 0]", fillcolor="#e58139"] ;
229 -> 231 ;
232 [label="entropy = 0.0\nsamples = 58\nvalue = [58, 0]", fillcolor="#e58139"] ;
202 -> 232 ;
233 [label="Type_Income <= 1.5\nentropy = 0.472\nsamples = 347\nvalue = [312, 35]", fillcolor="#e88f4f"] ;
201 -> 233 ;
234 [label="Type_Income <= 0.5\nentropy = 0.668\nsamples = 103\nvalue = [85, 18]", fillcolor="#eb9c63"] ;
233 -> 234 ;
235 [label="Type_Occupation <= 2.5\nentropy = 0.61\nsamples = 100\nvalue = [85, 15]", fillcolor="#ea975c"] ;
234 -> 235 ;
236 [label="Age <= 49.5\nentropy = 0.985\nsamples = 7\nvalue = [3, 4]", fillcolor="#cee6f8"] ;
235 -> 236 ;
237 [label="entropy = 0.0\nsamples = 3\nvalue = [0, 3]", fillcolor="#399de5"] ;
236 -> 237 ;
238 [label="CHILDREN <= 0.5\nentropy = 0.811\nsamples = 4\nvalue = [3, 1]", fillcolor="#eeab7b"] ;
236 -> 238 ;
239 [label="entropy = 0.0\nsamples = 3\nvalue = [3, 0]", fillcolor="#e58139"] ;
238 -> 239 ;
240 [label="entropy = 0.0\nsamples = 1\nvalue = [0, 1]", fillcolor="#399de5"] ;
238 -> 240 ;
241 [label="CHILDREN <= 1.5\nentropy = 0.524\nsamples = 93\nvalue = [82, 11]", fillcolor="#e89254"] ;
235 -> 241 ;
242 [label="Annual_income <= 213750.0\nentropy = 0.388\nsamples = 79\nvalue = [73, 6]", fillcolor="#e78b49"] ;
241 -> 242 ;
243 [label="Age <= 25.0\nentropy = 0.559\nsamples = 46\nvalue = [40, 6]", fillcolor="#e99457"] ;
242 -> 243 ;
244 [label="entropy = 0.0\nsamples = 1\nvalue = [0, 1]", fillcolor="#399de5"] ;
243 -> 244 ;
245 [label="Age <= 31.0\nentropy = 0.503\nsamples = 45\nvalue = [40, 5]", fillcolor="#e89152"] ;
243 -> 245 ;
246 [label="entropy = 0.0\nsamples = 10\nvalue = [10, 0]", fillcolor="#e58139"] ;
245 -> 246 ;
247 [label="Age <= 36.5\nentropy = 0.592\nsamples = 35\nvalue = [30, 5]", fillcolor="#e9965a"] ;
245 -> 247 ;
248 [label="Type_Occupation <= 9.0\nentropy = 0.918\nsamples = 9\nvalue = [6, 3]", fillcolor="#f2c09c"] ;
247 -> 248 ;
249 [label="Type_Occupation <= 5.5\nentropy = 1.0\nsamples = 6\nvalue = [3, 3]", fillcolor="#ffffff"] ;
248 -> 249 ;
250 [label="entropy = 0.0\nsamples = 2\nvalue = [2, 0]", fillcolor="#e58139"] ;
249 -> 250 ;
251 [label="Annual_income <= 141750.0\nentropy = 0.811\nsamples = 4\nvalue = [1, 3]", fillcolor="#7bbeee"] ;
249 -> 251 ;
252 [label="entropy = 1.0\nsamples = 2\nvalue = [1, 1]", fillcolor="#ffffff"] ;
251 -> 252 ;
253 [label="entropy = 0.0\nsamples = 2\nvalue = [0, 2]", fillcolor="#399de5"] ;
251 -> 253 ;
254 [label="entropy = 0.0\nsamples = 3\nvalue = [3, 0]", fillcolor="#e58139"] ;
248 -> 254 ;
255 [label="Age <= 50.0\nentropy = 0.391\nsamples = 26\nvalue = [24, 2]", fillcolor="#e78c49"] ;
247 -> 255 ;
256 [label="entropy = 0.0\nsamples = 20\nvalue = [20, 0]", fillcolor="#e58139"] ;
255 -> 256 ;
257 [label="Type_Occupation <= 10.5\nentropy = 0.918\nsamples = 6\nvalue = [4, 2]", fillcolor="#f2c09c"] ;
255 -> 257 ;
258 [label="entropy = 0.0\nsamples = 4\nvalue = [4, 0]", fillcolor="#e58139"] ;
257 -> 258 ;
259 [label="entropy = 0.0\nsamples = 2\nvalue = [0, 2]", fillcolor="#399de5"] ;
257 -> 259 ;
260 [label="entropy = 0.0\nsamples = 33\nvalue = [33, 0]", fillcolor="#e58139"] ;
242 -> 260 ;
261 [label="Age <= 44.5\nentropy = 0.94\nsamples = 14\nvalue = [9, 5]", fillcolor="#f3c7a7"] ;
241 -> 261 ;
262 [label="Annual_income <= 146250.0\nentropy = 0.469\nsamples = 10\nvalue = [9, 1]", fillcolor="#e88f4f"] ;
261 -> 262 ;
263 [label="entropy = 0.0\nsamples = 1\nvalue = [0, 1]", fillcolor="#399de5"] ;
262 -> 263 ;
264 [label="entropy = 0.0\nsamples = 9\nvalue = [9, 0]", fillcolor="#e58139"] ;
262 -> 264 ;
265 [label="entropy = 0.0\nsamples = 4\nvalue = [0, 4]", fillcolor="#399de5"] ;
261 -> 265 ;
266 [label="entropy = 0.0\nsamples = 3\nvalue = [0, 3]", fillcolor="#399de5"] ;
234 -> 266 ;
267 [label="Annual_income <= 120600.0\nentropy = 0.365\nsamples = 244\nvalue = [227, 17]", fillcolor="#e78a48"] ;
233 -> 267 ;
268 [label="entropy = 0.0\nsamples = 49\nvalue = [49, 0]", fillcolor="#e58139"] ;
267 -> 268 ;
269 [label="CHILDREN <= 0.5\nentropy = 0.427\nsamples = 195\nvalue = [178, 17]", fillcolor="#e78d4c"] ;
267 -> 269 ;
270 [label="Type_Occupation <= 7.0\nentropy = 0.552\nsamples = 117\nvalue = [102, 15]", fillcolor="#e99456"] ;
269 -> 270 ;
271 [label="UnemployedDaysOnly <= 4060.0\nentropy = 0.76\nsamples = 50\nvalue = [39, 11]", fillcolor="#eca571"] ;
270 -> 271 ;
272 [label="GENDER <= 0.5\nentropy = 0.878\nsamples = 37\nvalue = [26, 11]", fillcolor="#f0b68d"] ;
271 -> 272 ;
273 [label="Type_Occupation <= 0.5\nentropy = 0.988\nsamples = 23\nvalue = [13, 10]", fillcolor="#f9e2d1"] ;
272 -> 273 ;
274 [label="entropy = 0.0\nsamples = 2\nvalue = [2, 0]", fillcolor="#e58139"] ;
273 -> 274 ;
275 [label="UnemployedDaysOnly <= 3341.0\nentropy = 0.998\nsamples = 21\nvalue = [11, 10]", fillcolor="#fdf4ed"] ;
273 -> 275 ;
276 [label="EDUCATION <= 3.5\nentropy = 0.89\nsamples = 13\nvalue = [9, 4]", fillcolor="#f1b991"] ;
275 -> 276 ;
277 [label="Family_Members <= 1.5\nentropy = 0.985\nsamples = 7\nvalue = [3, 4]", fillcolor="#cee6f8"] ;
276 -> 277 ;
278 [label="Annual_income <= 157500.0\nentropy = 0.722\nsamples = 5\nvalue = [1, 4]", fillcolor="#6ab6ec"] ;
277 -> 278 ;
279 [label="entropy = 0.918\nsamples = 3\nvalue = [1, 2]", fillcolor="#9ccef2"] ;
278 -> 279 ;
280 [label="entropy = 0.0\nsamples = 2\nvalue = [0, 2]", fillcolor="#399de5"] ;
278 -> 280 ;
281 [label="entropy = 0.0\nsamples = 2\nvalue = [2, 0]", fillcolor="#e58139"] ;
277 -> 281 ;
282 [label="entropy = 0.0\nsamples = 6\nvalue = [6, 0]", fillcolor="#e58139"] ;
276 -> 282 ;
283 [label="UnemployedDaysOnly <= 3568.5\nentropy = 0.811\nsamples = 8\nvalue = [2, 6]", fillcolor="#7bbeee"] ;
275 -> 283 ;
284 [label="entropy = 0.0\nsamples = 5\nvalue = [0, 5]", fillcolor="#399de5"] ;
283 -> 284 ;
285 [label="UnemployedDaysOnly <= 3913.5\nentropy = 0.918\nsamples = 3\nvalue = [2, 1]", fillcolor="#f2c09c"] ;
283 -> 285 ;
286 [label="entropy = 0.0\nsamples = 2\nvalue = [2, 0]", fillcolor="#e58139"] ;
285 -> 286 ;
287 [label="entropy = 0.0\nsamples = 1\nvalue = [0, 1]", fillcolor="#399de5"] ;
285 -> 287 ;
288 [label="UnemployedDaysOnly <= 3081.0\nentropy = 0.371\nsamples = 14\nvalue = [13, 1]", fillcolor="#e78b48"] ;
272 -> 288 ;
289 [label="entropy = 0.0\nsamples = 10\nvalue = [10, 0]", fillcolor="#e58139"] ;
288 -> 289 ;
290 [label="Type_Occupation <= 5.0\nentropy = 0.811\nsamples = 4\nvalue = [3, 1]", fillcolor="#eeab7b"] ;
288 -> 290 ;
291 [label="entropy = 1.0\nsamples = 2\nvalue = [1, 1]", fillcolor="#ffffff"] ;
290 -> 291 ;
292 [label="entropy = 0.0\nsamples = 2\nvalue = [2, 0]", fillcolor="#e58139"] ;
290 -> 292 ;
293 [label="entropy = 0.0\nsamples = 13\nvalue = [13, 0]", fillcolor="#e58139"] ;
271 -> 293 ;
294 [label="Type_Occupation <= 15.5\nentropy = 0.326\nsamples = 67\nvalue = [63, 4]", fillcolor="#e78946"] ;
270 -> 294 ;
295 [label="Annual_income <= 128250.0\nentropy = 0.267\nsamples = 66\nvalue = [63, 3]", fillcolor="#e68742"] ;
294 -> 295 ;
296 [label="entropy = 0.0\nsamples = 1\nvalue = [0, 1]", fillcolor="#399de5"] ;
295 -> 296 ;
297 [label="GENDER <= 0.5\nentropy = 0.198\nsamples = 65\nvalue = [63, 2]", fillcolor="#e6853f"] ;
295 -> 297 ;
298 [label="entropy = 0.0\nsamples = 37\nvalue = [37, 0]", fillcolor="#e58139"] ;
297 -> 298 ;
299 [label="EDUCATION <= 3.5\nentropy = 0.371\nsamples = 28\nvalue = [26, 2]", fillcolor="#e78b48"] ;
297 -> 299 ;
300 [label="entropy = 0.0\nsamples = 12\nvalue = [12, 0]", fillcolor="#e58139"] ;
299 -> 300 ;
301 [label="Annual_income <= 292500.0\nentropy = 0.544\nsamples = 16\nvalue = [14, 2]", fillcolor="#e99355"] ;
299 -> 301 ;
302 [label="UnemployedDaysOnly <= 3576.0\nentropy = 0.353\nsamples = 15\nvalue = [14, 1]", fillcolor="#e78a47"] ;
301 -> 302 ;
303 [label="entropy = 0.0\nsamples = 11\nvalue = [11, 0]", fillcolor="#e58139"] ;
302 -> 303 ;
304 [label="Annual_income <= 157500.0\nentropy = 0.811\nsamples = 4\nvalue = [3, 1]", fillcolor="#eeab7b"] ;
302 -> 304 ;
305 [label="entropy = 0.0\nsamples = 3\nvalue = [3, 0]", fillcolor="#e58139"] ;
304 -> 305 ;
306 [label="entropy = 0.0\nsamples = 1\nvalue = [0, 1]", fillcolor="#399de5"] ;
304 -> 306 ;
307 [label="entropy = 0.0\nsamples = 1\nvalue = [0, 1]", fillcolor="#399de5"] ;
301 -> 307 ;
308 [label="entropy = 0.0\nsamples = 1\nvalue = [0, 1]", fillcolor="#399de5"] ;
294 -> 308 ;
309 [label="Marital_status <= 1.5\nentropy = 0.172\nsamples = 78\nvalue = [76, 2]", fillcolor="#e6843e"] ;
269 -> 309 ;
310 [label="entropy = 0.0\nsamples = 69\nvalue = [69, 0]", fillcolor="#e58139"] ;
309 -> 310 ;
311 [label="Work_Phone <= 0.5\nentropy = 0.764\nsamples = 9\nvalue = [7, 2]", fillcolor="#eca572"] ;
309 -> 311 ;
312 [label="entropy = 0.0\nsamples = 7\nvalue = [7, 0]", fillcolor="#e58139"] ;
311 -> 312 ;
313 [label="entropy = 0.0\nsamples = 2\nvalue = [0, 2]", fillcolor="#399de5"] ;
311 -> 313 ;
314 [label="entropy = 0.0\nsamples = 50\nvalue = [50, 0]", fillcolor="#e58139"] ;
200 -> 314 ;
}