digraph Tree {
node [shape=box, style="filled", color="black", fontname="helvetica"] ;
edge [fontname="helvetica"] ;
0 [label="UnemployedDaysOnly <= 1399.5\nentropy = 1.0\nsamples = 2059\nvalue = [1028, 1031]", fillcolor="#feffff"] ;
1 [label="Marital_status <= 0.5\nentropy = 0.97\nsamples = 1130\nvalue = [450, 680]", fillcolor="#bcdef6"] ;
0 -> 1 [labeldistance=2.5, labelangle=45, headlabel="True"] ;
2 [label="Type_Occupation <= 1.0\nentropy = 0.592\nsamples = 35\nvalue = [30, 5]", fillcolor="#e9965a"] ;
1 -> 2 ;
3 [label="Age <= 44.5\nentropy = 0.954\nsamples = 8\nvalue = [3, 5]", fillcolor="#b0d8f5"] ;
2 -> 3 ;
4 [label="entropy = 0.0\nsamples = 3\nvalue = [3, 0]", fillcolor="#e58139"] ;
3 -> 4 ;
5 [label="entropy = 0.0\nsamples = 5\nvalue = [0, 5]", fillcolor="#399de5"] ;
3 -> 5 ;
6 [label="entropy = 0.0\nsamples = 27\nvalue = [27, 0]", fillcolor="#e58139"] ;
2 -> 6 ;
7 [label="UnemployedDaysOnly <= 494.0\nentropy = 0.961\nsamples = 1095\nvalue = [420, 675]", fillcolor="#b4daf5"] ;
1 -> 7 ;
8 [label="Family_Members <= 2.5\nentropy = 0.995\nsamples = 557\nvalue = [256, 301]", fillcolor="#e1f0fb"] ;
7 -> 8 ;
9 [label="UnemployedDaysOnly <= 348.5\nentropy = 0.98\nsamples = 510\nvalue = [213, 297]", fillcolor="#c7e3f8"] ;
8 -> 9 ;
10 [label="CHILDREN <= 0.5\nentropy = 0.968\nsamples = 491\nvalue = [194, 297]", fillcolor="#baddf6"] ;
9 -> 10 ;
11 [label="Age <= 57.5\nentropy = 0.981\nsamples = 461\nvalue = [193, 268]", fillcolor="#c8e4f8"] ;
10 -> 11 ;
12 [label="GENDER <= 0.5\nentropy = 0.986\nsamples = 151\nvalue = [86, 65]", fillcolor="#f9e0cf"] ;
11 -> 12 ;
13 [label="Annual_income <= 427500.0\nentropy = 0.746\nsamples = 80\nvalue = [63, 17]", fillcolor="#eca36e"] ;
12 -> 13 ;
14 [label="Age <= 56.5\nentropy = 0.513\nsamples = 70\nvalue = [62, 8]", fillcolor="#e89153"] ;
13 -> 14 ;
15 [label="entropy = 0.0\nsamples = 46\nvalue = [46, 0]", fillcolor="#e58139"] ;
14 -> 15 ;
16 [label="Annual_income <= 144000.0\nentropy = 0.918\nsamples = 24\nvalue = [16, 8]", fillcolor="#f2c09c"] ;
14 -> 16 ;
17 [label="entropy = 0.0\nsamples = 9\nvalue = [9, 0]", fillcolor="#e58139"] ;
16 -> 17 ;
18 [label="Annual_income <= 159750.0\nentropy = 0.997\nsamples = 15\nvalue = [7, 8]", fillcolor="#e6f3fc"] ;
16 -> 18 ;
19 [label="entropy = 0.0\nsamples = 8\nvalue = [0, 8]", fillcolor="#399de5"] ;
18 -> 19 ;
20 [label="entropy = 0.0\nsamples = 7\nvalue = [7, 0]", fillcolor="#e58139"] ;
18 -> 20 ;
21 [label="Family_Members <= 1.5\nentropy = 0.469\nsamples = 10\nvalue = [1, 9]", fillcolor="#4fa8e8"] ;
13 -> 21 ;
22 [label="entropy = 0.0\nsamples = 1\nvalue = [1, 0]", fillcolor="#e58139"] ;
21 -> 22 ;
23 [label="entropy = 0.0\nsamples = 9\nvalue = [0, 9]", fillcolor="#399de5"] ;
21 -> 23 ;
24 [label="UnemployedDaysOnly <= 165.0\nentropy = 0.909\nsamples = 71\nvalue = [23, 48]", fillcolor="#98ccf1"] ;
12 -> 24 ;
25 [label="Annual_income <= 184500.0\nentropy = 0.961\nsamples = 26\nvalue = [16, 10]", fillcolor="#f5d0b5"] ;
24 -> 25 ;
26 [label="EDUCATION <= 2.5\nentropy = 0.954\nsamples = 16\nvalue = [6, 10]", fillcolor="#b0d8f5"] ;
25 -> 26 ;
27 [label="entropy = 0.0\nsamples = 10\nvalue = [0, 10]", fillcolor="#399de5"] ;
26 -> 27 ;
28 [label="entropy = 0.0\nsamples = 6\nvalue = [6, 0]", fillcolor="#e58139"] ;
26 -> 28 ;
29 [label="entropy = 0.0\nsamples = 10\nvalue = [10, 0]", fillcolor="#e58139"] ;
25 -> 29 ;
30 [label="Type_Occupation <= 5.0\nentropy = 0.624\nsamples = 45\nvalue = [7, 38]", fillcolor="#5dafea"] ;
24 -> 30 ;
31 [label="entropy = 0.0\nsamples = 3\nvalue = [3, 0]", fillcolor="#e58139"] ;
30 -> 31 ;
32 [label="Annual_income <= 123750.0\nentropy = 0.454\nsamples = 42\nvalue = [4, 38]", fillcolor="#4ea7e8"] ;
30 -> 32 ;
33 [label="entropy = 0.0\nsamples = 2\nvalue = [2, 0]", fillcolor="#e58139"] ;
32 -> 33 ;
34 [label="Age <= 53.5\nentropy = 0.286\nsamples = 40\nvalue = [2, 38]", fillcolor="#43a2e6"] ;
32 -> 34 ;
35 [label="EMAIL_ID <= 0.5\nentropy = 0.172\nsamples = 39\nvalue = [1, 38]", fillcolor="#3ea0e6"] ;
34 -> 35 ;
36 [label="entropy = 0.0\nsamples = 35\nvalue = [0, 35]", fillcolor="#399de5"] ;
35 -> 36 ;
37 [label="entropy = 0.811\nsamples = 4\nvalue = [1, 3]", fillcolor="#7bbeee"] ;
35 -> 37 ;
38 [label="entropy = 0.0\nsamples = 1\nvalue = [1, 0]", fillcolor="#e58139"] ;
34 -> 38 ;
39 [label="Marital_status <= 3.5\nentropy = 0.93\nsamples = 310\nvalue = [107, 203]", fillcolor="#a1d1f3"] ;
11 -> 39 ;
40 [label="Annual_income <= 72450.0\nentropy = 0.879\nsamples = 265\nvalue = [79, 186]", fillcolor="#8dc7f0"] ;
39 -> 40 ;
41 [label="entropy = 0.0\nsamples = 12\nvalue = [12, 0]", fillcolor="#e58139"] ;
40 -> 41 ;
42 [label="Housing_type <= 1.5\nentropy = 0.834\nsamples = 253\nvalue = [67, 186]", fillcolor="#80c0ee"] ;
40 -> 42 ;
43 [label="Age <= 66.5\nentropy = 0.886\nsamples = 217\nvalue = [66, 151]", fillcolor="#90c8f0"] ;
42 -> 43 ;
44 [label="Age <= 65.5\nentropy = 0.935\nsamples = 185\nvalue = [65, 120]", fillcolor="#a4d2f3"] ;
43 -> 44 ;
45 [label="Annual_income <= 85500.0\nentropy = 0.911\nsamples = 178\nvalue = [58, 120]", fillcolor="#99ccf2"] ;
44 -> 45 ;
46 [label="Age <= 59.5\nentropy = 0.469\nsamples = 20\nvalue = [2, 18]", fillcolor="#4fa8e8"] ;
45 -> 46 ;
47 [label="entropy = 0.0\nsamples = 1\nvalue = [1, 0]", fillcolor="#e58139"] ;
46 -> 47 ;
48 [label="Phone <= 0.5\nentropy = 0.297\nsamples = 19\nvalue = [1, 18]", fillcolor="#44a2e6"] ;
46 -> 48 ;
49 [label="entropy = 0.0\nsamples = 13\nvalue = [0, 13]", fillcolor="#399de5"] ;
48 -> 49 ;
50 [label="Age <= 62.0\nentropy = 0.65\nsamples = 6\nvalue = [1, 5]", fillcolor="#61b1ea"] ;
48 -> 50 ;
51 [label="entropy = 0.0\nsamples = 5\nvalue = [0, 5]", fillcolor="#399de5"] ;
50 -> 51 ;
52 [label="entropy = 0.0\nsamples = 1\nvalue = [1, 0]", fillcolor="#e58139"] ;
50 -> 52 ;
53 [label="GENDER <= 0.5\nentropy = 0.938\nsamples = 158\nvalue = [56, 102]", fillcolor="#a6d3f3"] ;
45 -> 53 ;
54 [label="Age <= 63.5\nentropy = 0.894\nsamples = 148\nvalue = [46, 102]", fillcolor="#92c9f1"] ;
53 -> 54 ;
55 [label="EDUCATION <= 3.5\nentropy = 0.864\nsamples = 143\nvalue = [41, 102]", fillcolor="#89c4ef"] ;
54 -> 55 ;
56 [label="Annual_income <= 288000.0\nentropy = 1.0\nsamples = 22\nvalue = [11, 11]", fillcolor="#ffffff"] ;
55 -> 56 ;
57 [label="entropy = 0.0\nsamples = 10\nvalue = [10, 0]", fillcolor="#e58139"] ;
56 -> 57 ;
58 [label="Phone <= 0.5\nentropy = 0.414\nsamples = 12\nvalue = [1, 11]", fillcolor="#4ba6e7"] ;
56 -> 58 ;
59 [label="entropy = 0.0\nsamples = 11\nvalue = [0, 11]", fillcolor="#399de5"] ;
58 -> 59 ;
60 [label="entropy = 0.0\nsamples = 1\nvalue = [1, 0]", fillcolor="#e58139"] ;
58 -> 60 ;
61 [label="Annual_income <= 236250.0\nentropy = 0.808\nsamples = 121\nvalue = [30, 91]", fillcolor="#7abdee"] ;
55 -> 61 ;
62 [label="Annual_income <= 159750.0\nentropy = 0.764\nsamples = 117\nvalue = [26, 91]", fillcolor="#72b9ec"] ;
61 -> 62 ;
63 [label="Age <= 58.5\nentropy = 0.913\nsamples = 61\nvalue = [20, 41]", fillcolor="#9acdf2"] ;
62 -> 63 ;
64 [label="entropy = 0.0\nsamples = 6\nvalue = [6, 0]", fillcolor="#e58139"] ;
63 -> 64 ;
65 [label="Age <= 60.5\nentropy = 0.818\nsamples = 55\nvalue = [14, 41]", fillcolor="#7dbeee"] ;
63 -> 65 ;
66 [label="Phone <= 0.5\nentropy = 0.513\nsamples = 35\nvalue = [4, 31]", fillcolor="#53aae8"] ;
65 -> 66 ;
67 [label="Annual_income <= 108000.0\nentropy = 0.764\nsamples = 18\nvalue = [4, 14]", fillcolor="#72b9ec"] ;
66 -> 67 ;
68 [label="Annual_income <= 96750.0\nentropy = 0.353\nsamples = 15\nvalue = [1, 14]", fillcolor="#47a4e7"] ;
67 -> 68 ;
69 [label="entropy = 0.811\nsamples = 4\nvalue = [1, 3]", fillcolor="#7bbeee"] ;
68 -> 69 ;
70 [label="entropy = 0.0\nsamples = 11\nvalue = [0, 11]", fillcolor="#399de5"] ;
68 -> 70 ;
71 [label="entropy = 0.0\nsamples = 3\nvalue = [3, 0]", fillcolor="#e58139"] ;
67 -> 71 ;
72 [label="entropy = 0.0\nsamples = 17\nvalue = [0, 17]", fillcolor="#399de5"] ;
66 -> 72 ;
73 [label="Annual_income <= 128250.0\nentropy = 1.0\nsamples = 20\nvalue = [10, 10]", fillcolor="#ffffff"] ;
65 -> 73 ;
74 [label="entropy = 0.0\nsamples = 5\nvalue = [5, 0]", fillcolor="#e58139"] ;
73 -> 74 ;
75 [label="Annual_income <= 146250.0\nentropy = 0.918\nsamples = 15\nvalue = [5, 10]", fillcolor="#9ccef2"] ;
73 -> 75 ;
76 [label="Car_Owner <= 0.5\nentropy = 0.65\nsamples = 12\nvalue = [2, 10]", fillcolor="#61b1ea"] ;
75 -> 76 ;
77 [label="Phone <= 0.5\nentropy = 0.918\nsamples = 6\nvalue = [2, 4]", fillcolor="#9ccef2"] ;
76 -> 77 ;
78 [label="Propert_Owner <= 0.5\nentropy = 0.722\nsamples = 5\nvalue = [1, 4]", fillcolor="#6ab6ec"] ;
77 -> 78 ;
79 [label="entropy = 0.0\nsamples = 1\nvalue = [1, 0]", fillcolor="#e58139"] ;
78 -> 79 ;
80 [label="entropy = 0.0\nsamples = 4\nvalue = [0, 4]", fillcolor="#399de5"] ;
78 -> 80 ;
81 [label="entropy = 0.0\nsamples = 1\nvalue = [1, 0]", fillcolor="#e58139"] ;
77 -> 81 ;
82 [label="entropy = 0.0\nsamples = 6\nvalue = [0, 6]", fillcolor="#399de5"] ;
76 -> 82 ;
83 [label="entropy = 0.0\nsamples = 3\nvalue = [3, 0]", fillcolor="#e58139"] ;
75 -> 83 ;
84 [label="Car_Owner <= 0.5\nentropy = 0.491\nsamples = 56\nvalue = [6, 50]", fillcolor="#51a9e8"] ;
62 -> 84 ;
85 [label="Family_Members <= 1.5\nentropy = 0.381\nsamples = 54\nvalue = [4, 50]", fillcolor="#49a5e7"] ;
84 -> 85 ;
86 [label="entropy = 0.0\nsamples = 20\nvalue = [0, 20]", fillcolor="#399de5"] ;
85 -> 86 ;
87 [label="Annual_income <= 191250.0\nentropy = 0.523\nsamples = 34\nvalue = [4, 30]", fillcolor="#53aae8"] ;
85 -> 87 ;
88 [label="Propert_Owner <= 0.5\nentropy = 0.337\nsamples = 32\nvalue = [2, 30]", fillcolor="#46a4e7"] ;
87 -> 88 ;
89 [label="entropy = 0.0\nsamples = 12\nvalue = [0, 12]", fillcolor="#399de5"] ;
88 -> 89 ;
90 [label="Age <= 60.5\nentropy = 0.469\nsamples = 20\nvalue = [2, 18]", fillcolor="#4fa8e8"] ;
88 -> 90 ;
91 [label="entropy = 0.0\nsamples = 1\nvalue = [1, 0]", fillcolor="#e58139"] ;
90 -> 91 ;
92 [label="Annual_income <= 171000.0\nentropy = 0.297\nsamples = 19\nvalue = [1, 18]", fillcolor="#44a2e6"] ;
90 -> 92 ;
93 [label="entropy = 0.0\nsamples = 1\nvalue = [1, 0]", fillcolor="#e58139"] ;
92 -> 93 ;
94 [label="entropy = 0.0\nsamples = 18\nvalue = [0, 18]", fillcolor="#399de5"] ;
92 -> 94 ;
95 [label="entropy = 0.0\nsamples = 2\nvalue = [2, 0]", fillcolor="#e58139"] ;
87 -> 95 ;
96 [label="entropy = 0.0\nsamples = 2\nvalue = [2, 0]", fillcolor="#e58139"] ;
84 -> 96 ;
97 [label="entropy = 0.0\nsamples = 4\nvalue = [4, 0]", fillcolor="#e58139"] ;
61 -> 97 ;
98 [label="entropy = 0.0\nsamples = 5\nvalue = [5, 0]", fillcolor="#e58139"] ;
54 -> 98 ;
99 [label="entropy = 0.0\nsamples = 10\nvalue = [10, 0]", fillcolor="#e58139"] ;
53 -> 99 ;
100 [label="entropy = 0.0\nsamples = 7\nvalue = [7, 0]", fillcolor="#e58139"] ;
44 -> 100 ;
101 [label="Family_Members <= 1.5\nentropy = 0.201\nsamples = 32\nvalue = [1, 31]", fillcolor="#3fa0e6"] ;
43 -> 101 ;
102 [label="entropy = 0.0\nsamples = 31\nvalue = [0, 31]", fillcolor="#399de5"] ;
101 -> 102 ;
103 [label="entropy = 0.0\nsamples = 1\nvalue = [1, 0]", fillcolor="#e58139"] ;
101 -> 103 ;
104 [label="Family_Members <= 1.5\nentropy = 0.183\nsamples = 36\nvalue = [1, 35]", fillcolor="#3fa0e6"] ;
42 -> 104 ;
105 [label="entropy = 0.0\nsamples = 1\nvalue = [1, 0]", fillcolor="#e58139"] ;
104 -> 105 ;
106 [label="entropy = 0.0\nsamples = 35\nvalue = [0, 35]", fillcolor="#399de5"] ;
104 -> 106 ;
107 [label="Annual_income <= 85500.0\nentropy = 0.956\nsamples = 45\nvalue = [28, 17]", fillcolor="#f5ceb1"] ;
39 -> 107 ;
108 [label="Phone <= 0.5\nentropy = 0.592\nsamples = 14\nvalue = [2, 12]", fillcolor="#5aade9"] ;
107 -> 108 ;
109 [label="entropy = 0.0\nsamples = 2\nvalue = [2, 0]", fillcolor="#e58139"] ;
108 -> 109 ;
110 [label="entropy = 0.0\nsamples = 12\nvalue = [0, 12]", fillcolor="#399de5"] ;
108 -> 110 ;
111 [label="GENDER <= 0.5\nentropy = 0.637\nsamples = 31\nvalue = [26, 5]", fillcolor="#ea995f"] ;
107 -> 111 ;
112 [label="entropy = 0.0\nsamples = 26\nvalue = [26, 0]", fillcolor="#e58139"] ;
111 -> 112 ;
113 [label="entropy = 0.0\nsamples = 5\nvalue = [0, 5]", fillcolor="#399de5"] ;
111 -> 113 ;
114 [label="Age <= 30.5\nentropy = 0.211\nsamples = 30\nvalue = [1, 29]", fillcolor="#40a0e6"] ;
10 -> 114 ;
115 [label="entropy = 0.0\nsamples = 1\nvalue = [1, 0]", fillcolor="#e58139"] ;
114 -> 115 ;
116 [label="entropy = 0.0\nsamples = 29\nvalue = [0, 29]", fillcolor="#399de5"] ;
114 -> 116 ;
117 [label="entropy = 0.0\nsamples = 19\nvalue = [19, 0]", fillcolor="#e58139"] ;
9 -> 117 ;
118 [label="Type_Occupation <= 12.0\nentropy = 0.42\nsamples = 47\nvalue = [43, 4]", fillcolor="#e78d4b"] ;
8 -> 118 ;
119 [label="entropy = 0.0\nsamples = 37\nvalue = [37, 0]", fillcolor="#e58139"] ;
118 -> 119 ;
120 [label="Car_Owner <= 0.5\nentropy = 0.971\nsamples = 10\nvalue = [6, 4]", fillcolor="#f6d5bd"] ;
118 -> 120 ;
121 [label="entropy = 0.0\nsamples = 5\nvalue = [5, 0]", fillcolor="#e58139"] ;
120 -> 121 ;
122 [label="Type_Income <= 1.5\nentropy = 0.722\nsamples = 5\nvalue = [1, 4]", fillcolor="#6ab6ec"] ;
120 -> 122 ;
123 [label="entropy = 0.0\nsamples = 1\nvalue = [1, 0]", fillcolor="#e58139"] ;
122 -> 123 ;
124 [label="entropy = 0.0\nsamples = 4\nvalue = [0, 4]", fillcolor="#399de5"] ;
122 -> 124 ;
125 [label="Age <= 36.5\nentropy = 0.887\nsamples = 538\nvalue = [164, 374]", fillcolor="#90c8f0"] ;
7 -> 125 ;
126 [label="Annual_income <= 387000.0\nentropy = 0.999\nsamples = 178\nvalue = [86, 92]", fillcolor="#f2f9fd"] ;
125 -> 126 ;
127 [label="Annual_income <= 191250.0\nentropy = 0.975\nsamples = 140\nvalue = [83, 57]", fillcolor="#f7d8c1"] ;
126 -> 127 ;
128 [label="Type_Occupation <= 5.0\nentropy = 1.0\nsamples = 113\nvalue = [56, 57]", fillcolor="#fcfdff"] ;
127 -> 128 ;
129 [label="entropy = 0.0\nsamples = 16\nvalue = [16, 0]", fillcolor="#e58139"] ;
128 -> 129 ;
130 [label="Type_Income <= 2.0\nentropy = 0.978\nsamples = 97\nvalue = [40, 57]", fillcolor="#c4e2f7"] ;
128 -> 130 ;
131 [label="Age <= 29.5\nentropy = 0.629\nsamples = 38\nvalue = [6, 32]", fillcolor="#5eafea"] ;
130 -> 131 ;
132 [label="entropy = 0.0\nsamples = 5\nvalue = [5, 0]", fillcolor="#e58139"] ;
131 -> 132 ;
133 [label="UnemployedDaysOnly <= 605.0\nentropy = 0.196\nsamples = 33\nvalue = [1, 32]", fillcolor="#3fa0e6"] ;
131 -> 133 ;
134 [label="entropy = 0.0\nsamples = 1\nvalue = [1, 0]", fillcolor="#e58139"] ;
133 -> 134 ;
135 [label="entropy = 0.0\nsamples = 32\nvalue = [0, 32]", fillcolor="#399de5"] ;
133 -> 135 ;
136 [label="Marital_status <= 1.5\nentropy = 0.983\nsamples = 59\nvalue = [34, 25]", fillcolor="#f8decb"] ;
130 -> 136 ;
137 [label="UnemployedDaysOnly <= 1147.0\nentropy = 1.0\nsamples = 49\nvalue = [24, 25]", fillcolor="#f7fbfe"] ;
136 -> 137 ;
138 [label="Annual_income <= 99000.0\nentropy = 0.965\nsamples = 41\nvalue = [16, 25]", fillcolor="#b8dcf6"] ;
137 -> 138 ;
139 [label="entropy = 0.0\nsamples = 5\nvalue = [5, 0]", fillcolor="#e58139"] ;
138 -> 139 ;
140 [label="UnemployedDaysOnly <= 536.0\nentropy = 0.888\nsamples = 36\nvalue = [11, 25]", fillcolor="#90c8f0"] ;
138 -> 140 ;
141 [label="entropy = 0.0\nsamples = 4\nvalue = [4, 0]", fillcolor="#e58139"] ;
140 -> 141 ;
142 [label="Age <= 26.5\nentropy = 0.758\nsamples = 32\nvalue = [7, 25]", fillcolor="#70b8ec"] ;
140 -> 142 ;
143 [label="entropy = 0.0\nsamples = 10\nvalue = [0, 10]", fillcolor="#399de5"] ;
142 -> 143 ;
144 [label="Annual_income <= 110250.0\nentropy = 0.902\nsamples = 22\nvalue = [7, 15]", fillcolor="#95cbf1"] ;
142 -> 144 ;
145 [label="GENDER <= 0.5\nentropy = 0.337\nsamples = 16\nvalue = [1, 15]", fillcolor="#46a4e7"] ;
144 -> 145 ;
146 [label="entropy = 0.0\nsamples = 15\nvalue = [0, 15]", fillcolor="#399de5"] ;
145 -> 146 ;
147 [label="entropy = 0.0\nsamples = 1\nvalue = [1, 0]", fillcolor="#e58139"] ;
145 -> 147 ;
148 [label="entropy = 0.0\nsamples = 6\nvalue = [6, 0]", fillcolor="#e58139"] ;
144 -> 148 ;
149 [label="entropy = 0.0\nsamples = 8\nvalue = [8, 0]", fillcolor="#e58139"] ;
137 -> 149 ;
150 [label="entropy = 0.0\nsamples = 10\nvalue = [10, 0]", fillcolor="#e58139"] ;
136 -> 150 ;
151 [label="entropy = 0.0\nsamples = 27\nvalue = [27, 0]", fillcolor="#e58139"] ;
127 -> 151 ;
152 [label="UnemployedDaysOnly <= 956.5\nentropy = 0.398\nsamples = 38\nvalue = [3, 35]", fillcolor="#4aa5e7"] ;
126 -> 152 ;
153 [label="entropy = 0.0\nsamples = 35\nvalue = [0, 35]", fillcolor="#399de5"] ;
152 -> 153 ;
154 [label="entropy = 0.0\nsamples = 3\nvalue = [3, 0]", fillcolor="#e58139"] ;
152 -> 154 ;
155 [label="Age <= 57.5\nentropy = 0.754\nsamples = 360\nvalue = [78, 282]", fillcolor="#70b8ec"] ;
125 -> 155 ;
156 [label="UnemployedDaysOnly <= 1083.0\nentropy = 0.72\nsamples = 352\nvalue = [70, 282]", fillcolor="#6ab5eb"] ;
155 -> 156 ;
157 [label="EDUCATION <= 2.0\nentropy = 0.604\nsamples = 278\nvalue = [41, 237]", fillcolor="#5baee9"] ;
156 -> 157 ;
158 [label="CHILDREN <= 0.5\nentropy = 0.333\nsamples = 114\nvalue = [7, 107]", fillcolor="#46a3e7"] ;
157 -> 158 ;
159 [label="UnemployedDaysOnly <= 598.5\nentropy = 0.132\nsamples = 109\nvalue = [2, 107]", fillcolor="#3d9fe5"] ;
158 -> 159 ;
160 [label="entropy = 0.0\nsamples = 64\nvalue = [0, 64]", fillcolor="#399de5"] ;
159 -> 160 ;
161 [label="UnemployedDaysOnly <= 651.0\nentropy = 0.262\nsamples = 45\nvalue = [2, 43]", fillcolor="#42a2e6"] ;
159 -> 161 ;
162 [label="entropy = 0.0\nsamples = 1\nvalue = [1, 0]", fillcolor="#e58139"] ;
161 -> 162 ;
163 [label="Phone <= 0.5\nentropy = 0.156\nsamples = 44\nvalue = [1, 43]", fillcolor="#3e9fe6"] ;
161 -> 163 ;
164 [label="entropy = 0.0\nsamples = 41\nvalue = [0, 41]", fillcolor="#399de5"] ;
163 -> 164 ;
165 [label="entropy = 0.918\nsamples = 3\nvalue = [1, 2]", fillcolor="#9ccef2"] ;
163 -> 165 ;
166 [label="entropy = 0.0\nsamples = 5\nvalue = [5, 0]", fillcolor="#e58139"] ;
158 -> 166 ;
167 [label="Car_Owner <= 0.5\nentropy = 0.736\nsamples = 164\nvalue = [34, 130]", fillcolor="#6db7ec"] ;
157 -> 167 ;
168 [label="Marital_status <= 2.5\nentropy = 0.973\nsamples = 52\nvalue = [21, 31]", fillcolor="#bfdff7"] ;
167 -> 168 ;
169 [label="UnemployedDaysOnly <= 1019.5\nentropy = 0.65\nsamples = 18\nvalue = [15, 3]", fillcolor="#ea9a61"] ;
168 -> 169 ;
170 [label="entropy = 0.0\nsamples = 14\nvalue = [14, 0]", fillcolor="#e58139"] ;
169 -> 170 ;
171 [label="Type_Occupation <= 8.5\nentropy = 0.811\nsamples = 4\nvalue = [1, 3]", fillcolor="#7bbeee"] ;
169 -> 171 ;
172 [label="entropy = 0.0\nsamples = 3\nvalue = [0, 3]", fillcolor="#399de5"] ;
171 -> 172 ;
173 [label="entropy = 0.0\nsamples = 1\nvalue = [1, 0]", fillcolor="#e58139"] ;
171 -> 173 ;
174 [label="Annual_income <= 123750.0\nentropy = 0.672\nsamples = 34\nvalue = [6, 28]", fillcolor="#63b2eb"] ;
168 -> 174 ;
175 [label="entropy = 0.0\nsamples = 3\nvalue = [3, 0]", fillcolor="#e58139"] ;
174 -> 175 ;
176 [label="Type_Occupation <= 12.0\nentropy = 0.459\nsamples = 31\nvalue = [3, 28]", fillcolor="#4ea8e8"] ;
174 -> 176 ;
177 [label="Annual_income <= 155250.0\nentropy = 0.629\nsamples = 19\nvalue = [3, 16]", fillcolor="#5eafea"] ;
176 -> 177 ;
178 [label="Age <= 46.5\nentropy = 0.323\nsamples = 17\nvalue = [1, 16]", fillcolor="#45a3e7"] ;
177 -> 178 ;
179 [label="entropy = 0.592\nsamples = 7\nvalue = [1, 6]", fillcolor="#5aade9"] ;
178 -> 179 ;
180 [label="entropy = 0.0\nsamples = 10\nvalue = [0, 10]", fillcolor="#399de5"] ;
178 -> 180 ;
181 [label="entropy = 0.0\nsamples = 2\nvalue = [2, 0]", fillcolor="#e58139"] ;
177 -> 181 ;
182 [label="entropy = 0.0\nsamples = 12\nvalue = [0, 12]", fillcolor="#399de5"] ;
176 -> 182 ;
183 [label="Age <= 41.5\nentropy = 0.518\nsamples = 112\nvalue = [13, 99]", fillcolor="#53aae8"] ;
167 -> 183 ;
184 [label="entropy = 0.0\nsamples = 3\nvalue = [3, 0]", fillcolor="#e58139"] ;
183 -> 184 ;
185 [label="Age <= 53.5\nentropy = 0.442\nsamples = 109\nvalue = [10, 99]", fillcolor="#4da7e8"] ;
183 -> 185 ;
186 [label="UnemployedDaysOnly <= 928.0\nentropy = 0.414\nsamples = 108\nvalue = [9, 99]", fillcolor="#4ba6e7"] ;
185 -> 186 ;
187 [label="Age <= 49.5\nentropy = 0.559\nsamples = 69\nvalue = [9, 60]", fillcolor="#57ace9"] ;
186 -> 187 ;
188 [label="Annual_income <= 110250.0\nentropy = 0.483\nsamples = 67\nvalue = [7, 60]", fillcolor="#50a8e8"] ;
187 -> 188 ;
189 [label="entropy = 0.0\nsamples = 1\nvalue = [1, 0]", fillcolor="#e58139"] ;
188 -> 189 ;
190 [label="Type_Occupation <= 12.0\nentropy = 0.439\nsamples = 66\nvalue = [6, 60]", fillcolor="#4da7e8"] ;
188 -> 190 ;
191 [label="Housing_type <= 3.0\nentropy = 0.391\nsamples = 65\nvalue = [5, 60]", fillcolor="#49a5e7"] ;
190 -> 191 ;
192 [label="GENDER <= 0.5\nentropy = 0.337\nsamples = 64\nvalue = [4, 60]", fillcolor="#46a4e7"] ;
191 -> 192 ;
193 [label="Phone <= 0.5\nentropy = 0.696\nsamples = 16\nvalue = [3, 13]", fillcolor="#67b4eb"] ;
192 -> 193 ;
194 [label="entropy = 0.0\nsamples = 2\nvalue = [2, 0]", fillcolor="#e58139"] ;
193 -> 194 ;
195 [label="entropy = 0.371\nsamples = 14\nvalue = [1, 13]", fillcolor="#48a5e7"] ;
193 -> 195 ;
196 [label="Type_Income <= 0.5\nentropy = 0.146\nsamples = 48\nvalue = [1, 47]", fillcolor="#3d9fe6"] ;
192 -> 196 ;
197 [label="Marital_status <= 2.0\nentropy = 0.323\nsamples = 17\nvalue = [1, 16]", fillcolor="#45a3e7"] ;
196 -> 197 ;
198 [label="entropy = 0.503\nsamples = 9\nvalue = [1, 8]", fillcolor="#52a9e8"] ;
197 -> 198 ;
199 [label="entropy = 0.0\nsamples = 8\nvalue = [0, 8]", fillcolor="#399de5"] ;
197 -> 199 ;
200 [label="entropy = 0.0\nsamples = 31\nvalue = [0, 31]", fillcolor="#399de5"] ;
196 -> 200 ;
201 [label="entropy = 0.0\nsamples = 1\nvalue = [1, 0]", fillcolor="#e58139"] ;
191 -> 201 ;
202 [label="entropy = 0.0\nsamples = 1\nvalue = [1, 0]", fillcolor="#e58139"] ;
190 -> 202 ;
203 [label="entropy = 0.0\nsamples = 2\nvalue = [2, 0]", fillcolor="#e58139"] ;
187 -> 203 ;
204 [label="entropy = 0.0\nsamples = 39\nvalue = [0, 39]", fillcolor="#399de5"] ;
186 -> 204 ;
205 [label="entropy = 0.0\nsamples = 1\nvalue = [1, 0]", fillcolor="#e58139"] ;
185 -> 205 ;
206 [label="GENDER <= 0.5\nentropy = 0.966\nsamples = 74\nvalue = [29, 45]", fillcolor="#b9dcf6"] ;
156 -> 206 ;
207 [label="entropy = 0.0\nsamples = 18\nvalue = [18, 0]", fillcolor="#e58139"] ;
206 -> 207 ;
208 [label="Annual_income <= 220050.0\nentropy = 0.715\nsamples = 56\nvalue = [11, 45]", fillcolor="#69b5eb"] ;
206 -> 208 ;
209 [label="UnemployedDaysOnly <= 1275.5\nentropy = 0.286\nsamples = 40\nvalue = [2, 38]", fillcolor="#43a2e6"] ;
208 -> 209 ;
210 [label="entropy = 0.0\nsamples = 2\nvalue = [2, 0]", fillcolor="#e58139"] ;
209 -> 210 ;
211 [label="entropy = 0.0\nsamples = 38\nvalue = [0, 38]", fillcolor="#399de5"] ;
209 -> 211 ;
212 [label="Type_Occupation <= 9.0\nentropy = 0.989\nsamples = 16\nvalue = [9, 7]", fillcolor="#f9e3d3"] ;
208 -> 212 ;
213 [label="entropy = 0.0\nsamples = 8\nvalue = [8, 0]", fillcolor="#e58139"] ;
212 -> 213 ;
214 [label="Phone <= 0.5\nentropy = 0.544\nsamples = 8\nvalue = [1, 7]", fillcolor="#55abe9"] ;
212 -> 214 ;
215 [label="entropy = 0.0\nsamples = 7\nvalue = [0, 7]", fillcolor="#399de5"] ;
214 -> 215 ;
216 [label="entropy = 0.0\nsamples = 1\nvalue = [1, 0]", fillcolor="#e58139"] ;
214 -> 216 ;
217 [label="entropy = 0.0\nsamples = 8\nvalue = [8, 0]", fillcolor="#e58139"] ;
155 -> 217 ;
218 [label="Age <= 55.5\nentropy = 0.956\nsamples = 929\nvalue = [578, 351]", fillcolor="#f5ceb1"] ;
0 -> 218 [labeldistance=2.5, labelangle=-45, headlabel="False"] ;
219 [label="Annual_income <= 258750.0\nentropy = 0.969\nsamples = 885\nvalue = [534, 351]", fillcolor="#f6d4bb"] ;
218 -> 219 ;
220 [label="Type_Income <= 1.5\nentropy = 0.986\nsamples = 758\nvalue = [431, 327]", fillcolor="#f9e1cf"] ;
219 -> 220 ;
221 [label="Annual_income <= 168750.0\nentropy = 0.992\nsamples = 235\nvalue = [105, 130]", fillcolor="#d9ecfa"] ;
220 -> 221 ;
222 [label="Family_Members <= 2.5\nentropy = 0.903\nsamples = 138\nvalue = [44, 94]", fillcolor="#96cbf1"] ;
221 -> 222 ;
223 [label="Age <= 50.0\nentropy = 0.999\nsamples = 62\nvalue = [30, 32]", fillcolor="#f3f9fd"] ;
222 -> 223 ;
224 [label="Propert_Owner <= 0.5\nentropy = 0.65\nsamples = 30\nvalue = [25, 5]", fillcolor="#ea9a61"] ;
223 -> 224 ;
225 [label="Car_Owner <= 0.5\nentropy = 0.994\nsamples = 11\nvalue = [6, 5]", fillcolor="#fbeade"] ;
224 -> 225 ;
226 [label="entropy = 0.0\nsamples = 4\nvalue = [4, 0]", fillcolor="#e58139"] ;
225 -> 226 ;
227 [label="Age <= 33.0\nentropy = 0.863\nsamples = 7\nvalue = [2, 5]", fillcolor="#88c4ef"] ;
225 -> 227 ;
228 [label="entropy = 0.0\nsamples = 2\nvalue = [2, 0]", fillcolor="#e58139"] ;
227 -> 228 ;
229 [label="entropy = 0.0\nsamples = 5\nvalue = [0, 5]", fillcolor="#399de5"] ;
227 -> 229 ;
230 [label="entropy = 0.0\nsamples = 19\nvalue = [19, 0]", fillcolor="#e58139"] ;
224 -> 230 ;
231 [label="Car_Owner <= 0.5\nentropy = 0.625\nsamples = 32\nvalue = [5, 27]", fillcolor="#5eafea"] ;
223 -> 231 ;
232 [label="Type_Occupation <= 4.5\nentropy = 0.362\nsamples = 29\nvalue = [2, 27]", fillcolor="#48a4e7"] ;
231 -> 232 ;
233 [label="entropy = 0.0\nsamples = 2\nvalue = [2, 0]", fillcolor="#e58139"] ;
232 -> 233 ;
234 [label="entropy = 0.0\nsamples = 27\nvalue = [0, 27]", fillcolor="#399de5"] ;
232 -> 234 ;
235 [label="entropy = 0.0\nsamples = 3\nvalue = [3, 0]", fillcolor="#e58139"] ;
231 -> 235 ;
236 [label="UnemployedDaysOnly <= 1917.0\nentropy = 0.689\nsamples = 76\nvalue = [14, 62]", fillcolor="#66b3eb"] ;
222 -> 236 ;
237 [label="entropy = 0.0\nsamples = 18\nvalue = [0, 18]", fillcolor="#399de5"] ;
236 -> 237 ;
238 [label="Age <= 33.5\nentropy = 0.797\nsamples = 58\nvalue = [14, 44]", fillcolor="#78bced"] ;
236 -> 238 ;
239 [label="entropy = 0.0\nsamples = 8\nvalue = [8, 0]", fillcolor="#e58139"] ;
238 -> 239 ;
240 [label="Propert_Owner <= 0.5\nentropy = 0.529\nsamples = 50\nvalue = [6, 44]", fillcolor="#54aae9"] ;
238 -> 240 ;
241 [label="entropy = 0.0\nsamples = 2\nvalue = [2, 0]", fillcolor="#e58139"] ;
240 -> 241 ;
242 [label="Type_Occupation <= 10.5\nentropy = 0.414\nsamples = 48\nvalue = [4, 44]", fillcolor="#4ba6e7"] ;
240 -> 242 ;
243 [label="Annual_income <= 130500.0\nentropy = 0.258\nsamples = 46\nvalue = [2, 44]", fillcolor="#42a1e6"] ;
242 -> 243 ;
244 [label="UnemployedDaysOnly <= 4116.5\nentropy = 0.503\nsamples = 18\nvalue = [2, 16]", fillcolor="#52a9e8"] ;
243 -> 244 ;
245 [label="Type_Occupation <= 4.0\nentropy = 0.323\nsamples = 17\nvalue = [1, 16]", fillcolor="#45a3e7"] ;
244 -> 245 ;
246 [label="entropy = 0.0\nsamples = 7\nvalue = [0, 7]", fillcolor="#399de5"] ;
245 -> 246 ;
247 [label="entropy = 0.469\nsamples = 10\nvalue = [1, 9]", fillcolor="#4fa8e8"] ;
245 -> 247 ;
248 [label="entropy = 0.0\nsamples = 1\nvalue = [1, 0]", fillcolor="#e58139"] ;
244 -> 248 ;
249 [label="entropy = 0.0\nsamples = 28\nvalue = [0, 28]", fillcolor="#399de5"] ;
243 -> 249 ;
250 [label="entropy = 0.0\nsamples = 2\nvalue = [2, 0]", fillcolor="#e58139"] ;
242 -> 250 ;
251 [label="Type_Occupation <= 3.5\nentropy = 0.952\nsamples = 97\nvalue = [61, 36]", fillcolor="#f4cbae"] ;
221 -> 251 ;
252 [label="Annual_income <= 207000.0\nentropy = 0.529\nsamples = 25\nvalue = [3, 22]", fillcolor="#54aae9"] ;
251 -> 252 ;
253 [label="CHILDREN <= 3.0\nentropy = 0.881\nsamples = 10\nvalue = [3, 7]", fillcolor="#8ec7f0"] ;
252 -> 253 ;
254 [label="entropy = 0.0\nsamples = 3\nvalue = [3, 0]", fillcolor="#e58139"] ;
253 -> 254 ;
255 [label="entropy = 0.0\nsamples = 7\nvalue = [0, 7]", fillcolor="#399de5"] ;
253 -> 255 ;
256 [label="entropy = 0.0\nsamples = 15\nvalue = [0, 15]", fillcolor="#399de5"] ;
252 -> 256 ;
257 [label="EDUCATION <= 3.0\nentropy = 0.711\nsamples = 72\nvalue = [58, 14]", fillcolor="#eb9f69"] ;
251 -> 257 ;
258 [label="entropy = 0.0\nsamples = 20\nvalue = [20, 0]", fillcolor="#e58139"] ;
257 -> 258 ;
259 [label="Family_Members <= 3.5\nentropy = 0.84\nsamples = 52\nvalue = [38, 14]", fillcolor="#efaf82"] ;
257 -> 259 ;
260 [label="UnemployedDaysOnly <= 2159.0\nentropy = 0.675\nsamples = 45\nvalue = [37, 8]", fillcolor="#eb9c64"] ;
259 -> 260 ;
261 [label="Type_Occupation <= 7.0\nentropy = 0.985\nsamples = 14\nvalue = [6, 8]", fillcolor="#cee6f8"] ;
260 -> 261 ;
262 [label="entropy = 0.0\nsamples = 3\nvalue = [3, 0]", fillcolor="#e58139"] ;
261 -> 262 ;
263 [label="Car_Owner <= 0.5\nentropy = 0.845\nsamples = 11\nvalue = [3, 8]", fillcolor="#83c2ef"] ;
261 -> 263 ;
264 [label="entropy = 0.0\nsamples = 3\nvalue = [3, 0]", fillcolor="#e58139"] ;
263 -> 264 ;
265 [label="entropy = 0.0\nsamples = 8\nvalue = [0, 8]", fillcolor="#399de5"] ;
263 -> 265 ;
266 [label="entropy = 0.0\nsamples = 31\nvalue = [31, 0]", fillcolor="#e58139"] ;
260 -> 266 ;
267 [label="GENDER <= 0.5\nentropy = 0.592\nsamples = 7\nvalue = [1, 6]", fillcolor="#5aade9"] ;
259 -> 267 ;
268 [label="entropy = 0.0\nsamples = 6\nvalue = [0, 6]", fillcolor="#399de5"] ;
267 -> 268 ;
269 [label="entropy = 0.0\nsamples = 1\nvalue = [1, 0]", fillcolor="#e58139"] ;
267 -> 269 ;
270 [label="Type_Occupation <= 8.5\nentropy = 0.956\nsamples = 523\nvalue = [326, 197]", fillcolor="#f5cdb1"] ;
220 -> 270 ;
271 [label="Annual_income <= 176625.0\nentropy = 0.99\nsamples = 434\nvalue = [243, 191]", fillcolor="#f9e4d5"] ;
270 -> 271 ;
272 [label="Housing_type <= 1.5\nentropy = 0.906\nsamples = 230\nvalue = [156, 74]", fillcolor="#f1bd97"] ;
271 -> 272 ;
273 [label="Propert_Owner <= 0.5\nentropy = 0.705\nsamples = 172\nvalue = [139, 33]", fillcolor="#eb9f68"] ;
272 -> 273 ;
274 [label="GENDER <= 0.5\nentropy = 0.975\nsamples = 81\nvalue = [48, 33]", fillcolor="#f7d8c1"] ;
273 -> 274 ;
275 [label="EDUCATION <= 1.5\nentropy = 0.391\nsamples = 39\nvalue = [36, 3]", fillcolor="#e78c49"] ;
274 -> 275 ;
276 [label="Type_Occupation <= 5.5\nentropy = 0.985\nsamples = 7\nvalue = [4, 3]", fillcolor="#f8e0ce"] ;
275 -> 276 ;
277 [label="entropy = 0.0\nsamples = 4\nvalue = [4, 0]", fillcolor="#e58139"] ;
276 -> 277 ;
278 [label="entropy = 0.0\nsamples = 3\nvalue = [0, 3]", fillcolor="#399de5"] ;
276 -> 278 ;
279 [label="entropy = 0.0\nsamples = 32\nvalue = [32, 0]", fillcolor="#e58139"] ;
275 -> 279 ;
280 [label="Phone <= 0.5\nentropy = 0.863\nsamples = 42\nvalue = [12, 30]", fillcolor="#88c4ef"] ;
274 -> 280 ;
281 [label="Age <= 42.0\nentropy = 0.592\nsamples = 35\nvalue = [5, 30]", fillcolor="#5aade9"] ;
280 -> 281 ;
282 [label="entropy = 0.0\nsamples = 2\nvalue = [2, 0]", fillcolor="#e58139"] ;
281 -> 282 ;
283 [label="Annual_income <= 146250.0\nentropy = 0.439\nsamples = 33\nvalue = [3, 30]", fillcolor="#4da7e8"] ;
281 -> 283 ;
284 [label="Marital_status <= 2.0\nentropy = 0.881\nsamples = 10\nvalue = [3, 7]", fillcolor="#8ec7f0"] ;
283 -> 284 ;
285 [label="entropy = 0.0\nsamples = 3\nvalue = [3, 0]", fillcolor="#e58139"] ;
284 -> 285 ;
286 [label="entropy = 0.0\nsamples = 7\nvalue = [0, 7]", fillcolor="#399de5"] ;
284 -> 286 ;
287 [label="entropy = 0.0\nsamples = 23\nvalue = [0, 23]", fillcolor="#399de5"] ;
283 -> 287 ;
288 [label="entropy = 0.0\nsamples = 7\nvalue = [7, 0]", fillcolor="#e58139"] ;
280 -> 288 ;
289 [label="entropy = 0.0\nsamples = 91\nvalue = [91, 0]", fillcolor="#e58139"] ;
273 -> 289 ;
290 [label="Housing_type <= 4.5\nentropy = 0.873\nsamples = 58\nvalue = [17, 41]", fillcolor="#8bc6f0"] ;
272 -> 290 ;
291 [label="Annual_income <= 146250.0\nentropy = 0.642\nsamples = 49\nvalue = [8, 41]", fillcolor="#60b0ea"] ;
290 -> 291 ;
292 [label="Annual_income <= 76500.0\nentropy = 0.496\nsamples = 46\nvalue = [5, 41]", fillcolor="#51a9e8"] ;
291 -> 292 ;
293 [label="entropy = 0.0\nsamples = 2\nvalue = [2, 0]", fillcolor="#e58139"] ;
292 -> 293 ;
294 [label="Age <= 28.5\nentropy = 0.359\nsamples = 44\nvalue = [3, 41]", fillcolor="#47a4e7"] ;
292 -> 294 ;
295 [label="entropy = 0.0\nsamples = 1\nvalue = [1, 0]", fillcolor="#e58139"] ;
294 -> 295 ;
296 [label="Marital_status <= 0.5\nentropy = 0.271\nsamples = 43\nvalue = [2, 41]", fillcolor="#43a2e6"] ;
294 -> 296 ;
297 [label="entropy = 0.0\nsamples = 1\nvalue = [1, 0]", fillcolor="#e58139"] ;
296 -> 297 ;
298 [label="Age <= 30.0\nentropy = 0.162\nsamples = 42\nvalue = [1, 41]", fillcolor="#3e9fe6"] ;
296 -> 298 ;
299 [label="entropy = 0.337\nsamples = 16\nvalue = [1, 15]", fillcolor="#46a4e7"] ;
298 -> 299 ;
300 [label="entropy = 0.0\nsamples = 26\nvalue = [0, 26]", fillcolor="#399de5"] ;
298 -> 300 ;
301 [label="entropy = 0.0\nsamples = 3\nvalue = [3, 0]", fillcolor="#e58139"] ;
291 -> 301 ;
302 [label="entropy = 0.0\nsamples = 9\nvalue = [9, 0]", fillcolor="#e58139"] ;
290 -> 302 ;
303 [label="UnemployedDaysOnly <= 2213.0\nentropy = 0.984\nsamples = 204\nvalue = [87, 117]", fillcolor="#cce6f8"] ;
271 -> 303 ;
304 [label="entropy = 0.0\nsamples = 32\nvalue = [32, 0]", fillcolor="#e58139"] ;
303 -> 304 ;
305 [label="Type_Income <= 2.5\nentropy = 0.904\nsamples = 172\nvalue = [55, 117]", fillcolor="#96cbf1"] ;
303 -> 305 ;
306 [label="entropy = 0.0\nsamples = 9\nvalue = [9, 0]", fillcolor="#e58139"] ;
305 -> 306 ;
307 [label="UnemployedDaysOnly <= 3515.5\nentropy = 0.858\nsamples = 163\nvalue = [46, 117]", fillcolor="#87c4ef"] ;
305 -> 307 ;
308 [label="UnemployedDaysOnly <= 3306.0\nentropy = 0.698\nsamples = 101\nvalue = [19, 82]", fillcolor="#67b4eb"] ;
307 -> 308 ;
309 [label="UnemployedDaysOnly <= 2891.5\nentropy = 0.971\nsamples = 40\nvalue = [16, 24]", fillcolor="#bddef6"] ;
308 -> 309 ;
310 [label="Type_Occupation <= 1.5\nentropy = 0.811\nsamples = 32\nvalue = [8, 24]", fillcolor="#7bbeee"] ;
309 -> 310 ;
311 [label="entropy = 0.0\nsamples = 11\nvalue = [0, 11]", fillcolor="#399de5"] ;
310 -> 311 ;
312 [label="Family_Members <= 2.5\nentropy = 0.959\nsamples = 21\nvalue = [8, 13]", fillcolor="#b3d9f5"] ;
310 -> 312 ;
313 [label="entropy = 0.0\nsamples = 6\nvalue = [6, 0]", fillcolor="#e58139"] ;
312 -> 313 ;
314 [label="CHILDREN <= 1.5\nentropy = 0.567\nsamples = 15\nvalue = [2, 13]", fillcolor="#57ace9"] ;
312 -> 314 ;
315 [label="entropy = 0.0\nsamples = 13\nvalue = [0, 13]", fillcolor="#399de5"] ;
314 -> 315 ;
316 [label="entropy = 0.0\nsamples = 2\nvalue = [2, 0]", fillcolor="#e58139"] ;
314 -> 316 ;
317 [label="entropy = 0.0\nsamples = 8\nvalue = [8, 0]", fillcolor="#e58139"] ;
309 -> 317 ;
318 [label="EDUCATION <= 1.5\nentropy = 0.283\nsamples = 61\nvalue = [3, 58]", fillcolor="#43a2e6"] ;
308 -> 318 ;
319 [label="entropy = 0.0\nsamples = 1\nvalue = [1, 0]", fillcolor="#e58139"] ;
318 -> 319 ;
320 [label="Age <= 30.5\nentropy = 0.211\nsamples = 60\nvalue = [2, 58]", fillcolor="#40a0e6"] ;
318 -> 320 ;
321 [label="entropy = 0.0\nsamples = 1\nvalue = [1, 0]", fillcolor="#e58139"] ;
320 -> 321 ;
322 [label="Age <= 44.0\nentropy = 0.124\nsamples = 59\nvalue = [1, 58]", fillcolor="#3c9fe5"] ;
320 -> 322 ;
323 [label="entropy = 0.0\nsamples = 33\nvalue = [0, 33]", fillcolor="#399de5"] ;
322 -> 323 ;
324 [label="entropy = 0.235\nsamples = 26\nvalue = [1, 25]", fillcolor="#41a1e6"] ;
322 -> 324 ;
325 [label="Age <= 45.5\nentropy = 0.988\nsamples = 62\nvalue = [27, 35]", fillcolor="#d2e9f9"] ;
307 -> 325 ;
326 [label="Age <= 44.0\nentropy = 0.912\nsamples = 52\nvalue = [17, 35]", fillcolor="#99cdf2"] ;
325 -> 326 ;
327 [label="UnemployedDaysOnly <= 4495.0\nentropy = 0.998\nsamples = 36\nvalue = [17, 19]", fillcolor="#eaf5fc"] ;
326 -> 327 ;
328 [label="Family_Members <= 2.5\nentropy = 0.795\nsamples = 25\nvalue = [6, 19]", fillcolor="#78bced"] ;
327 -> 328 ;
329 [label="Age <= 34.0\nentropy = 0.454\nsamples = 21\nvalue = [2, 19]", fillcolor="#4ea7e8"] ;
328 -> 329 ;
330 [label="entropy = 0.0\nsamples = 2\nvalue = [2, 0]", fillcolor="#e58139"] ;
329 -> 330 ;
331 [label="entropy = 0.0\nsamples = 19\nvalue = [0, 19]", fillcolor="#399de5"] ;
329 -> 331 ;
332 [label="entropy = 0.0\nsamples = 4\nvalue = [4, 0]", fillcolor="#e58139"] ;
328 -> 332 ;
333 [label="entropy = 0.0\nsamples = 11\nvalue = [11, 0]", fillcolor="#e58139"] ;
327 -> 333 ;
334 [label="entropy = 0.0\nsamples = 16\nvalue = [0, 16]", fillcolor="#399de5"] ;
326 -> 334 ;
335 [label="entropy = 0.0\nsamples = 10\nvalue = [10, 0]", fillcolor="#e58139"] ;
325 -> 335 ;
336 [label="Age <= 50.5\nentropy = 0.356\nsamples = 89\nvalue = [83, 6]", fillcolor="#e78a47"] ;
270 -> 336 ;
337 [label="entropy = 0.0\nsamples = 68\nvalue = [68, 0]", fillcolor="#e58139"] ;
336 -> 337 ;
338 [label="UnemployedDaysOnly <= 2055.0\nentropy = 0.863\nsamples = 21\nvalue = [15, 6]", fillcolor="#efb388"] ;
336 -> 338 ;
339 [label="Age <= 53.0\nentropy = 0.722\nsamples = 5\nvalue = [1, 4]", fillcolor="#6ab6ec"] ;
338 -> 339 ;
340 [label="entropy = 0.0\nsamples = 1\nvalue = [1, 0]", fillcolor="#e58139"] ;
339 -> 340 ;
341 [label="entropy = 0.0\nsamples = 4\nvalue = [0, 4]", fillcolor="#399de5"] ;
339 -> 341 ;
342 [label="Age <= 51.5\nentropy = 0.544\nsamples = 16\nvalue = [14, 2]", fillcolor="#e99355"] ;
338 -> 342 ;
343 [label="Annual_income <= 150750.0\nentropy = 0.918\nsamples = 3\nvalue = [1, 2]", fillcolor="#9ccef2"] ;
342 -> 343 ;
344 [label="entropy = 0.0\nsamples = 2\nvalue = [0, 2]", fillcolor="#399de5"] ;
343 -> 344 ;
345 [label="entropy = 0.0\nsamples = 1\nvalue = [1, 0]", fillcolor="#e58139"] ;
343 -> 345 ;
346 [label="entropy = 0.0\nsamples = 13\nvalue = [13, 0]", fillcolor="#e58139"] ;
342 -> 346 ;
347 [label="Age <= 42.5\nentropy = 0.699\nsamples = 127\nvalue = [103, 24]", fillcolor="#eb9e67"] ;
219 -> 347 ;
348 [label="Age <= 30.5\nentropy = 0.267\nsamples = 66\nvalue = [63, 3]", fillcolor="#e68742"] ;
347 -> 348 ;
349 [label="Annual_income <= 303750.0\nentropy = 0.881\nsamples = 10\nvalue = [7, 3]", fillcolor="#f0b78e"] ;
348 -> 349 ;
350 [label="entropy = 0.0\nsamples = 3\nvalue = [0, 3]", fillcolor="#399de5"] ;
349 -> 350 ;
351 [label="entropy = 0.0\nsamples = 7\nvalue = [7, 0]", fillcolor="#e58139"] ;
349 -> 351 ;
352 [label="entropy = 0.0\nsamples = 56\nvalue = [56, 0]", fillcolor="#e58139"] ;
348 -> 352 ;
353 [label="CHILDREN <= 1.5\nentropy = 0.929\nsamples = 61\nvalue = [40, 21]", fillcolor="#f3c3a1"] ;
347 -> 353 ;
354 [label="UnemployedDaysOnly <= 2444.5\nentropy = 0.747\nsamples = 47\nvalue = [37, 10]", fillcolor="#eca36f"] ;
353 -> 354 ;
355 [label="Propert_Owner <= 0.5\nentropy = 0.977\nsamples = 17\nvalue = [7, 10]", fillcolor="#c4e2f7"] ;
354 -> 355 ;
356 [label="entropy = 0.0\nsamples = 5\nvalue = [5, 0]", fillcolor="#e58139"] ;
355 -> 356 ;
357 [label="Type_Occupation <= 3.5\nentropy = 0.65\nsamples = 12\nvalue = [2, 10]", fillcolor="#61b1ea"] ;
355 -> 357 ;
358 [label="entropy = 0.0\nsamples = 8\nvalue = [0, 8]", fillcolor="#399de5"] ;
357 -> 358 ;
359 [label="Type_Occupation <= 9.0\nentropy = 1.0\nsamples = 4\nvalue = [2, 2]", fillcolor="#ffffff"] ;
357 -> 359 ;
360 [label="entropy = 0.0\nsamples = 2\nvalue = [2, 0]", fillcolor="#e58139"] ;
359 -> 360 ;
361 [label="entropy = 0.0\nsamples = 2\nvalue = [0, 2]", fillcolor="#399de5"] ;
359 -> 361 ;
362 [label="entropy = 0.0\nsamples = 30\nvalue = [30, 0]", fillcolor="#e58139"] ;
354 -> 362 ;
363 [label="Work_Phone <= 0.5\nentropy = 0.75\nsamples = 14\nvalue = [3, 11]", fillcolor="#6fb8ec"] ;
353 -> 363 ;
364 [label="entropy = 0.0\nsamples = 2\nvalue = [2, 0]", fillcolor="#e58139"] ;
363 -> 364 ;
365 [label="EDUCATION <= 2.5\nentropy = 0.414\nsamples = 12\nvalue = [1, 11]", fillcolor="#4ba6e7"] ;
363 -> 365 ;
366 [label="entropy = 0.0\nsamples = 11\nvalue = [0, 11]", fillcolor="#399de5"] ;
365 -> 366 ;
367 [label="entropy = 0.0\nsamples = 1\nvalue = [1, 0]", fillcolor="#e58139"] ;
365 -> 367 ;
368 [label="entropy = 0.0\nsamples = 44\nvalue = [44, 0]", fillcolor="#e58139"] ;
218 -> 368 ;
}